solver_type L2R_L2LOSS_SVC_DUAL
nr_class 6
label 1 2 3 4 5 6
nr_feature 5312
bias -1
w
-0.007693326834608628 -0.004539747578324355 -0.001970664504485173 0.01902153318151766 0.007661576083045856 -0.005266275829350825 
-0.009789879130968838 0.006683532598115625 0.008541225951982487 -0.006428279671804499 -0.02076317907494495 0.009590666454123219 
-0.005229554216372463 0.001388880009522539 0.0179799719713453 -0.01530292321015776 -0.01166839311636537 0.003526174554880443 
0.001127377479131846 0.0004799390134124705 0.03000586941883437 -0.04058418305317726 -0.01072088135098925 -0.002145042440098445 
-0.01136470085492434 -0.01895898243841413 0.01960318143635521 -0.004785299158729325 0.004424387491548394 -0.01181444781310379 
-0.01680114879887499 0.003725071999054684 0.002746269753759985 -0.01338923050765191 -0.003985210828226138 0.01356521765218499 
-0.01489371453639828 0.02580196397158351 0.002666110665135668 -0.01495556479810829 -0.006702055481780715 0.005889012840589025 
-0.03231609204368893 -0.0151366414016245 0.01273213274500009 -0.01202941205240961 -7.17224175839601e-05 0.02402315633526165 
-0.0227831222764133 -0.01865640749911062 0.02097847314711104 0.0191245476053301 -0.007954210418406956 -0.006100816703222151 
-0.01908076177317282 -0.005174958825078887 0.02077522782387527 -0.005395670380758242 -0.00968703140033369 0.001986083466040672 
-0.006949417572145031 -0.00943588688853096 0.01365742901455703 -0.01159506821258017 -0.004111538391390378 0.002210681500941786 
-0.01202296132510692 -0.002121209128591546 0.006782098440073372 -0.001587271951532591 -0.002477349585981145 0.005449088795077496 
-0.03081929062528092 0.003546282391412854 0.01001741720555343 5.234925644589785e-05 0.001224781565471812 0.006923430404242229 
-0.01451444122697319 0.00705597852087897 0.01003694426191353 -0.01259143976541415 0.0005017119338332976 0.0003845022881907291 
-0.008605131383321134 0.007203816668947501 0.007464193846588204 -0.007325072898622061 -0.004810723553745945 0.001107650441731989 
-0.01979382153730066 0.0225612097311102 0.005379686691546636 -0.006735592862845749 -0.003518889900352174 -0.003281522980660851 
0.01837266069685587 -0.02534757326301237 -0.009418890664594313 0.02529645010939895 -0.009442627534741004 0.006611943233719001 
-0.03564717180920204 0.02274701233979122 -0.001955187392744429 0.006101510044813927 -0.03115120748649957 0.02358601694929587 
-0.03748550389547758 0.0005410668808728742 0.03596907939313459 -0.02076012682479796 -0.0206755394211346 0.008174619772969384 
-0.007382651644257467 -0.004630895950499115 0.02025229919558144 -0.02499042336747539 -0.01398054119633921 -0.00588583270847727 
-0.03126160424079228 0.009156497748452008 0.0002698765031271251 0.001967679011153021 -0.02896895359061159 0.004564274341851692 
-0.01251769819620954 0.01411773673854811 -0.009540489583949478 0.001333744474995475 0.005114527984668282 -0.007875110410542476 
-0.02104165388993973 0.0043443986211829 -0.001099021700079192 -0.009395110038655497 -0.01083604353919006 0.02974509455980529 
0.003709744736043547 0.004640525600453402 -0.003410814366456185 0.005146994521609456 -0.01528355270773259 0.007456733121101651 
-0.01425517564678554 0.005369101618331384 -0.005909334415462028 0.02591590682060902 -0.01787593466808243 0.003865176624372843 
-0.03112287253039631 0.001926744749847257 0.01862598960617361 -0.004343993035238236 -0.008756541250635606 0.006547515360300022 
-0.02274472535781307 -0.01338653498970237 0.05068938145446423 -0.01626128864728033 -0.02838820814263762 0.006736869652916394 
-0.03633902453530212 0.01204054119868875 0.01871230859560602 -0.01678518729930657 -0.0149225371050869 0.01270406296772431 
-0.06328238944498965 0.01735025457621719 -0.003281340127312907 0.009527482113906837 0.005573210914129103 0.01310752245824349 
-0.01250448914059924 0.00725446379580742 -0.01583255107134349 0.01305754790607921 0.006054597970804688 -0.003634385438169428 
-0.01282705783053577 0.02108160317796449 -0.01362770226336454 0.003546355339290379 -0.01209284443260305 0.01550804148746413 
-0.003926291718305587 -0.001208634270597889 -0.008624776253552876 0.01246756976176918 -0.001850165441091179 -0.0006657485443284612 
-0.0004249623886969535 0.009355016486564402 -0.007457934480098268 0.0009757663804737471 0.01196582055761264 -0.00836418645914414 
-0.03603403852720011 0.01146949373914231 0.01054039367744959 0.007571600294987085 -0.01660955306343122 -0.0004572346107845695 
-0.04350309631301984 0.01282313277278711 0.01860862327224424 -0.004442815732326697 -0.01306910158341055 0.008022902780858425 
-0.01779514086207779 -0.001119505959737976 -0.00861915762688136 0.01108518908619212 -0.007692279106864596 0.007677790502183465 
-0.02719720885092635 0.0144402041974702 -0.02007756300369272 0.02782075971282415 -0.02874357506734854 0.01318870600655502 
-0.006250160164067544 -0.01490200871071097 -0.02033628001591827 0.02918375071984379 -0.01059235848475297 0.004497853502821457 
0.023695210477057 -0.02181941909779574 -0.009635999023854562 0.009199187954878158 -0.02672890438868561 0.0112286257121377 
-0.009768832342787144 -0.01868975836719519 -0.01104235797136123 0.01457545531848272 -0.003574170751465017 0.01592372841956715 
-0.02465666278325449 0.02734288611777043 -0.01076854512265991 0.008957506817927317 -0.01071966674329989 -0.001211577419926862 
-0.02911805341682941 -0.01205744009183419 -0.002690346312996858 0.02580611718205717 -0.003141937519329006 0.01560669132678139 
-0.03162505338924393 -0.005053943112365387 0.01764351027797875 0.003890741018395225 -0.02243016004711199 0.01756767155176411 
-0.03263481197994262 0.004011708778176686 -0.008078829653037922 0.006165095728678119 -0.0109099001425107 0.01938040522917477 
-0.02046632854722651 0.008620093294497106 -0.01347823884687997 0.01103794746767833 0.007428722807880532 -0.003300749474674358 
0.01652556713129546 0.000198169267712514 -0.01903589549613096 0.009148857432524131 0.005030703017340782 -0.01206306999170078 
0.004833561221430388 -0.007357442123315895 -0.007954862465521437 -0.00597558022239328 -0.02125876274037663 0.01979170159550813 
-0.0007225793694233044 -0.0004695762003257701 -0.01345466710912684 0.007446037162645556 -0.0007129799481213734 0.00502672374557609 
0.01173071370763763 0.0118153274553061 -0.006511560072198922 -0.01077061263977219 0.02845397930039283 -0.03405794446534594 
-0.02266195381785404 -0.01517414884117194 0.005276882453955469 0.01496391956150665 0.02078101502652507 -0.009054264987274773 
-0.03047319997837848 -0.0141229327503146 -0.003634485490792945 0.008535800118751956 -0.0002395557642397508 0.02681819667842418 
-0.02477397758405133 -0.009661609985479581 -0.002180581080835037 0.003980863173715045 -0.0005977824314147948 0.0296391614631525 
0.008863741464010748 0.01610994692827299 0.01302612428768253 0.01401348356443697 -0.0393650568553034 -0.0158812039152979 
0.0130299211321379 -0.01842901061084772 -0.002144409986485227 -0.009779080357625617 -0.007461920549623648 0.009343939340035646 
-0.007670548740658623 -0.02956702162992448 -0.0212276419328588 -0.0159364210963895 0.03318470551169068 0.02091644920103348 
0.00095062457853048 -0.009949034687218391 -0.007057705764088773 0.005457853090862056 0.004286157784233049 -0.00523590093596585 
-0.007743070425614605 0.02232503661595035 -0.006663141309503764 0.02933410800500337 -0.01823265385539447 -0.01350835141098889 
0.002376778407069232 0.009917209553781243 0.006840337970217312 0.003839416535104191 -0.01122050464864216 -0.01624864938303465 
-0.01564302655857874 -0.002187872652456586 -0.005704230550281774 -0.001408652253656608 0.004240521274802583 0.009156508923916847 
-0.03576536410438609 0.01152825880291872 -0.01883306737255716 -2.42564260793306e-05 0.005539426565677166 0.03250433999838393 
0.007159958209717185 0.02296576762951973 -0.008377565512002911 -0.02495238674689243 0.03038358056890276 -0.02238411410276959 
0.02669587312326737 -0.0319105795380546 -0.01839449249549575 -0.007520940065681723 0.02340781549200771 0.00382263123438392 
-0.03598877136081938 -0.002457858374697882 -0.02557667977410863 -0.004798391006935504 0.01239506496475996 0.04053806206204724 
-0.00679649878237547 0.00192838236093379 -0.01987394558087283 0.002316159123204722 0.03253393503896553 -0.01600202945420169 
0.01764346983726771 0.02554120138839271 -0.01047687184339223 0.02429711022819617 0.006122035640900386 -0.03246609336207189 
0.002523855269105808 -0.01532938346364732 -0.002738897520801811 0.01073845613296968 0.02732082519020389 -0.01746982974415806 
-0.007513530645851578 -0.01540027176289108 -0.01880780699092005 -0.005976448383421569 0.02240713131972943 0.01784746831312781 
-0.00683191683300065 -0.01908695864165394 -0.001270194688161559 0.009386300230400392 -0.003046764148332427 0.00459382124007792 
-0.01472717955132221 0.007172679505941919 0.004756949231133497 0.01140063957636481 -0.01435924431654428 -0.007935511104914368 
0.0002718818222710227 -0.02255222981233115 -0.00290526207553026 -0.0003071312897166419 0.007663716349985152 0.01535185780922805 
-0.01329705380486582 9.818470267620181e-05 -0.008277853221130843 -0.00443853584831662 0.01961102743672728 0.009821492553418945 
-0.02111328401872213 0.01376044234723235 0.01020832242214857 0.005287005022412325 0.00231296033412497 -0.01617592311596961 
0.04040614263110797 0.01307321332395695 -0.04497678814923697 0.0216555620994916 0.02891556881070734 -0.041724846178584 
-0.02007497870049796 0.004417618308352446 -0.0174330254697351 0.01109306920115053 0.02525354756970038 -0.004744333918636483 
-0.02923172300472964 0.0004865616792334263 -0.03098043250466043 0.001986517391692408 0.01660367807658795 0.03406882603583347 
-0.004466792167341073 -0.003460108571662549 -0.03298989752216265 0.001030102179622116 -0.0014683004295296 0.03292141767285084 
0.04593674712058235 -0.009238924735719875 -0.03256471802514718 -0.01181222449089476 0.03291298026074298 -0.02282742955103406 
-0.01262720865524649 0.006294375553493927 -0.01978456636433913 0.007788373930928061 0.01167866665489637 0.00892810359675267 
-0.01794508772010101 0.001143628312029478 -0.01560304061436349 0.006763673517653107 0.009862179972104316 0.01669236812791839 
-0.01140650299390789 0.007533527231716554 -0.01773200208843588 0.009320145827434494 0.0173193952867308 -0.003258556422887253 
-0.004885316200514195 0.01748953988385181 -0.001416908062362526 -0.002156207131600597 -0.008962489350080543 -0.008994053523151489 
-0.01972008987445721 -0.02564535615125098 -0.02502720305083123 0.02605935188196764 0.0188518388206389 0.01023185369206107 
0.02013764498329969 -0.01572639889418864 -0.01741125173085106 0.0004984222605276459 -0.005293134194288706 0.01302162699689909 
0.02905796868298386 -0.03123674703091935 -0.01680829773560035 0.0006352342005858111 -0.0152661052487581 0.01315742303566017 
-0.02663430359849399 0.05098647462119377 -0.007289590663006375 0.03594659462339583 -0.04415764668140097 -0.02188050572694584 
-0.01357360806401207 -0.009552961992980686 -0.01586341527190574 0.01728778138841715 0.003554046097895743 0.008824290815382694 
-0.03896994784895087 -0.01302613186326534 -0.008343454011301868 0.01161605748920276 0.007440316997811385 0.01905635777953527 
-0.03228143376445738 -0.004721263873675992 0.007072246426816143 0.01578527035999803 -0.008490071506294767 0.00486838539243203 
-0.06227570372636872 0.01505516755469052 -0.01128084831910329 0.01747963925815621 0.05415955836739388 -0.004406032418512258 
-0.006623175017610961 0.009285370310362679 -0.007055153528342734 0.001498596022815585 0.01137333690600606 0.005588432391185556 
-0.01655363008898158 0.003862949162804223 -0.01635225376447256 0.00582410772943694 0.007753170140546464 0.02082073598303151 
0.05147277688345017 -0.01252918730342601 -0.01702777200345361 -0.003071430477684361 -0.003126367267401338 -0.01741042465989475 
-0.02265934123877594 0.01950963033794425 -0.03302317112838391 0.01783050749958175 0.03401326147607588 -0.01625987149863524 
-0.03645592090687726 0.008266690760219247 -0.01650618230700733 0.01752801926379408 -0.01646071191992102 0.03166130360581556 
-0.0414584746238446 0.003190779940786009 -0.0001232532786222389 0.008126038489389574 -0.01943251904583746 0.02604223799116869 
-0.02674294235871596 -0.004216882568890774 -5.893308082587188e-05 0.01628389201784316 -0.007659069395965892 0.01118462082750284 
0.0008938028163315068 -0.004513802342703587 -0.004626494338504504 0.01412747425359306 -0.004840305300252104 -0.01394793878684442 
0.003908997052650703 -0.01295643762999687 -0.01381748548198283 0.02661258406493197 -0.0162139153050346 0.01004701789194173 
-0.02186114248028383 0.001832460389613909 -0.005568268348870566 -0.0006689952022743019 -0.01165614383890343 0.03507945688741679 
-0.02491744875291189 0.0002814929147214138 -0.01633089529216588 0.0108550533318532 0.02590624589076734 0.003516385243396826 
-0.00906671953744489 0.02563025132484988 -0.008074007284601085 0.01833029192948473 -0.04196296939515949 -0.01556752893556768 
0.005030769467756613 -0.01147379843760496 0.02113290995654702 -0.026087309746212 -0.008888952296455456 -0.01622276777840072 
-0.02697265796611317 -0.001496874221639579 0.03316324131890024 -0.04003225417660139 -0.009765744338651778 0.002142744423209022 
-0.03842071936415364 -0.002360970263209955 0.02079360890648304 -0.003941092548779457 -0.01618143733586974 0.0168139472593023 
-0.03631768512302747 -0.000159526024990206 -0.01391638944173758 0.02577707669632016 0.02494803135408671 0.009981246345171583 
-0.004747885287508615 0.0166267059519151 -0.01328300925737708 0.003609065690218905 -0.003619825018307207 0.001527417995322641 
0.0003697556935721007 0.007007068195190778 -0.01550138804286881 -0.0008901773135920656 -0.01125241777985907 0.01500511458986961 
-0.007900853033644514 -0.004110920521769173 -0.01466858463529013 -0.002011944424933429 0.01871119001849141 0.01225885437332167 
-0.02092768230832746 -0.0001154479772324827 -0.009949126915850148 0.006064664056501885 0.01299783013534497 0.01446271134831577 
-0.04454342311824337 0.001086038638008848 -0.004732729959664837 0.004282385376413319 -0.01074927980999303 0.03328663261944976 
-0.04683725103139995 0.01205578975592521 0.02136137650513253 -0.009941679376815232 -0.01518757604151517 0.020005066033685 
-0.02633330854751197 0.004396117273303138 0.004624280328249636 0.0033454597042785 0.003634979765065494 0.00301084488585081 
-0.02986505705790771 -0.006260548607949081 0.006655738688088888 0.01976922259745832 0.0173419995810481 -0.01062410084281199 
-0.002993194086218773 -0.0004930640986507629 0.00416808715156454 -0.02842617665225489 -0.002558744639128049 0.0007643796299763847 
-0.01702926507229107 0.02620763745995936 0.005140885685688521 -0.03051220150705551 -0.01443719037429713 0.01084207833849954 
-0.01002265254612553 -0.00473852541082632 0.01478955991092164 -0.02516087635054373 -0.006776464748948096 0.006844448814036618 
-0.01948392162961739 0.02911542822091604 0.02263958450829924 -0.03536092038762979 -0.00256097838277863 -0.006592291245938928 
0.0005941123235202476 -0.003960371965880214 0.02703727782528017 -0.03514903218703846 -0.007293845508854967 -0.006046301777061536 
-0.01082111290978184 -0.01255536820855486 0.03427909004574889 -0.02636273974675499 -0.01244390773820299 -0.001642977239015887 
-0.003849952567438066 -0.003507906236246596 0.01244480850127545 0.001385499958922134 -0.01149119759287532 0.0004989061891001727 
-0.0186369836024708 -0.0003382519655542707 -0.008138640216629276 0.02074447455873855 0.02051890508242137 -0.0008988201166232589 
-0.01220422677514434 0.002217529763484521 -0.003599450962766553 0.001590402297798086 0.006177679468944911 0.0007436438810322826 
-0.009620451853398757 0.01438327366218524 -0.00336581837654692 -0.005983231675090676 -0.003132968598283182 0.00182102995613159 
-0.0111139780092755 0.005583441878827077 -0.0007998589570965814 -0.001353767920282655 0.0001240847440081418 0.003793870275080972 
-0.02927206452559813 -0.01176100667872877 -0.003435162398211817 0.006251419943718412 0.004634691587401115 0.01650549772338156 
-0.01533671207924063 -0.0006282189607442761 0.01625084233800097 -0.01129268604779035 -0.01130102796593014 0.008104749701304908 
-0.01608929794242616 -0.01658896941513309 0.02668568869614024 -0.01793707370335059 -0.008292231455190154 0.006868968167137195 
-0.01673996295824118 -0.01455159567234527 0.02455974553710856 -0.0007976591932740854 -0.01953048589937989 0.006531539172280211 
-0.01689038101286543 0.0108705165096362 -0.002978531247452447 0.00640776534441612 0.005468703517165483 0.006473845013327323 
0.001908130081903859 0.01227913858770389 0.01072626485016483 -0.005958841048183368 -0.01732449776440182 -0.003717066386034354 
-0.01659059227542517 0.006609199995570365 0.02941564576613763 -0.01900415451180309 -0.01624107362794247 0.009156814175104203 
-0.01456759614422251 0.003856300439302316 0.02759104605102517 -0.02217725080322958 -0.01292452144277791 0.001122350202227418 
0.0006211307617432944 0.003748726907615427 0.005062405237789773 -0.004675764288281072 -0.02246224979998758 -0.01224296828408631 
-0.01337691557416519 -0.008186217851434892 0.002941035182288608 0.004463122926628198 -0.01422545890280744 0.01578238205057014 
-0.02856691187077279 0.02832298900910916 -0.001299694186745903 -0.01837193891976423 -0.008860062933831727 0.01447840586779151 
-0.02630812926996134 0.003931928556627649 0.007646053710086169 -0.008390181916097821 -0.004685329865286664 0.01534757494301088 
-0.04666154334070285 0.007951839554616574 0.009916465020967522 -0.009162935745166767 -0.0045728703082135 0.02399725522358036 
-0.03712016732227753 -0.005257205980213195 0.01919035365865694 -0.001483270210801623 -0.007620793847100969 0.007068926182866754 
-0.01930584801085314 -0.01409244199237972 0.02976978513557021 -0.01933966113965908 -0.002979253408183547 0.005385783561966958 
-0.01880783716223025 -0.01845936897384556 0.02423049176146629 -0.01690761040708538 0.02034576696735971 0.005181034132413738 
-0.02708595225617542 0.01093416394026515 0.0105211156531029 -0.002100266510291445 0.002864497668142941 0.01543289390744004 
-0.02503320022616174 0.006760831740773685 0.004817789789582284 -0.002659737044864204 -0.001810392062251333 0.009654581842685616 
-0.01189368424504152 0.02485082049640727 -0.002834159369240965 -0.009895927757198681 -0.003168031318570905 0.0002971930991002686 
-0.01953104762346922 0.0199377739673807 -0.004559751562692819 -0.007265134814582592 0.01118412664406503 -0.009944497345027004 
0.05567469398432698 -0.01473083833130965 -0.01485115714026414 0.000772566067981155 -0.0283224281345261 -0.01319355336938326 
0.001163114158529625 0.02997130242776364 0.006799444451342752 -0.02340214294207401 -0.04378850383216098 -0.00752557321222834 
-0.03699557062368655 -0.0005799668508452286 0.04416145230327562 -0.02759641050625106 -0.03566065177367264 0.02849198108173096 
-0.03238038640041187 -0.01260706078339708 0.02939587596289805 -0.0193310443784414 -0.01201310163611169 0.01761960092765694 
-0.01018519366949444 -0.04249599348382113 -0.007209585782929385 0.02520982622594715 -0.03702471641728163 0.03403555933665982 
-0.009623840873431043 -0.00494919080082347 -0.01249390822840459 0.01687819834082482 -0.01590148092488341 0.01388161946886274 
-0.01837779094562516 0.005992051653789006 -0.01768017022176508 0.008737823958529081 -0.02276921738208246 0.02397192834569823 
-0.006895973176886869 0.005962467686065768 -0.01611329740070593 0.01323261311997928 -0.01191278567317358 0.004519228303707294 
0.0112214965096866 0.03119061716959705 -0.02314707070631384 -2.285087756980801e-06 -0.0177680113969178 -0.009323642229757855 
-0.0609087306638699 0.03166078491364888 0.009009427128774854 -0.009953913063646793 0.0163350333836737 -0.001670064645683485 
-0.03777146500761636 -0.01827051124983557 0.03182617902016098 -0.00653605490274242 -0.01561322718828628 0.02235274050992803 
-0.03809428665254968 -0.02109959656507389 0.02850993781081817 -0.0117620143821196 0.001967081344181566 0.02380253918244295 
-0.01305454988231887 -0.01958079934012632 -0.004034371791872512 0.03097695737786306 -0.02696869886003799 0.02419093376582409 
0.008400140043350065 -0.01237992086319106 -0.01315107978530087 0.02685120706043638 -0.0003755251267948574 0.00137900898945966 
-0.02983940554471432 0.02520247869006466 -0.01996284675449819 0.007830846563310182 0.01617127554760607 -0.005622321379321432 
-0.01825756754208144 0.02249051113590634 -0.01242330282998972 -0.001811841432868174 0.01762402839883647 -0.01740694083563208 
0.02668863506939748 0.001217109901076366 -0.0329773776575565 0.008724838412872271 0.03740954093764449 -0.03329807911473991 
-0.0007308176307821696 0.01061781865414241 0.01081266684994396 -0.007286973067013824 -0.02096459891279807 -0.008748647495661668 
-0.05939479291334794 -0.00992435405837463 0.0212762305637267 -0.003989965402109274 -0.03319524913620078 0.04670861815174628 
-0.003795785768001863 -0.02883283032057165 -0.002510520678493998 0.006208528246844733 -0.01731018863146877 0.02200186073484381 
-0.03538778258136839 -0.02227121477765303 -0.006502066039150664 0.01340521884334466 -0.003564745854915706 0.02090429207039038 
-0.006970658861916114 -0.004877141692791762 -0.01806848242868942 0.01051797661678249 -0.01390116492475411 0.00443739464386201 
0.02323422424185911 0.01336193699347027 -0.02669831733071961 -0.03067200606926312 -0.01154308118529226 -0.007862321130976986 
-0.006949060826819799 0.004880163972730061 -0.01850293201976217 -0.0001244886394775678 -0.0153672648984146 0.007112858993308364 
-0.02490910443556903 0.005576961685196534 -0.01944242053749044 0.01363138104925199 0.01653013321900423 0.006719121232852779 
-0.01816331276470013 -0.01980127370749587 0.01645411793182564 0.008251976230132753 -0.01365269581997969 0.01474399401236407 
-0.0186049292116251 -0.02268185038692939 0.03654414496832683 0.01145542414085272 -0.04100370197840742 0.01570260357306589 
-0.01000991589322382 -0.01785219156297232 0.01133746695759929 -0.0004294984811572297 -0.03091630916870587 0.02618166457737225 
0.003791572861017944 -0.03143945190771447 -0.01996882886412577 0.03088186221826394 -0.03176154715745665 0.04124987216253071 
0.03118416022925068 -0.01738265459057007 -0.02567669488736627 0.009891923762360269 0.008883664523215134 -0.003512975280465208 
-0.01014130256229126 0.02456010140750835 -0.02649049392762641 -0.01782982804086714 0.03535002585775604 -0.01815440227554484 
0.01121542924342295 2.102500731345135e-05 -0.04087066932839509 -0.01140843911408292 0.084085496614489 -0.03020865709319129 
0.03072679115435164 0.02783863120374647 -0.02814057380317168 -0.008931940827865912 -0.001366137366423933 -0.01339909161844661 
0.001091388596732978 -0.01027556265855394 0.003355087619587047 -0.001604093023965973 0.001979852127142323 -0.006664384750339332 
-0.00415659960559533 -0.03427007953251103 0.01982374187190592 -0.009743775771846883 0.01683752890200476 0.001839865634217762 
-0.005097758428998699 -0.02012050006057092 -0.0306220824096309 0.02816494673233832 0.01470427717638752 0.007364714319843942 
-0.0303671934696378 0.003547000385829184 -0.02759654511289236 0.01166807416291681 0.03848888948633032 -0.01782459996227678 
0.01169087495160805 -0.002119213570997595 -0.02457241919966592 -0.01277700610301316 0.0222672937621195 -0.0208953070947943 
0.004313818272008152 0.0227165415186873 -0.03077624984437385 -0.03150707950253293 0.005017159247765429 0.00313356297891934 
0.01443672618006821 -0.02884195642548715 -0.02016561703263367 -0.00300741937533549 0.041479380418472 0.00590998173001859 
-0.01952647629088148 0.005182791680416404 -0.02388569304514901 -5.895538455073566e-05 0.01749509261482144 0.01150803704122721 
0.002894302929913164 -0.004986591582424713 0.00546572020931106 -0.001571470201560467 -0.0126699275065579 0.01031430746103914 
0.005560012835618306 -0.02815541991936231 -0.01457611442679423 0.01472972637468752 -0.01385017224616967 0.03222878241373571 
-0.001451964383714679 -0.04167307878120505 -0.006288123228300473 0.02219329566864223 -0.01649074472892248 0.02503867926836365 
0.02657603313561139 -0.03489878787551525 -0.03377988207894386 0.02355441411558477 -0.008204486731458651 0.02540093103138005 
0.036508276977972 -0.0339471901018248 -0.02045305474379615 -0.0135248581278001 0.01090141087980179 -0.001840419108915407 
-0.02888594193533434 -0.006116131834891597 -0.03474572192985997 -0.03104338520216265 0.04392959999677477 0.05334602184678592 
-0.008372439922452544 0.016701937279539 -0.02722933616592831 -0.01351681506708399 0.01380608039998059 0.007802501429599102 
0.01514211814276019 0.03061484219327323 -0.008350171459251855 -0.01153039755592975 -0.01020557775050384 -0.02263804805991214 
-0.002268709543800813 -0.03431920843078667 -0.01735832536955267 0.005651943842325658 0.0307410718078896 0.008835597528896323 
-0.002144698543257758 0.004978655328932519 -0.01865526735736138 -0.005971682034006415 0.01840778521291236 -0.001513517322043217 
0.01186786845535241 0.01009866605804287 -0.02165183189227947 -0.006703651324056573 0.03981306469826486 -0.02069473417664649 
-0.01799498631828606 0.01244718832828202 -0.03674766981380211 0.009703444546380257 0.05125262203204405 -0.03456322164611262 
0.01189986353763829 -0.02459269772590785 -0.02594043464087979 0.002039388473673542 0.02174269072480646 -0.006481964880346497 
-0.01493651273068157 -0.02683144035677213 -0.0115337150642397 -0.002286560080820069 -0.01049020037803431 0.03872519899976786 
-0.00303399941891112 -0.005180594047542638 -0.00377288640355317 -0.004939071383675759 0.01921605674136815 0.003743107856256841 
0.02070200592409047 0.01429816159074581 -0.02045349836634654 -0.01211579070194443 -1.524980687497836e-05 -0.0148390932665458 
-0.002258014661842861 -0.006954362679598868 -0.0002583719513566354 -0.009470870700667879 3.54315064350269e-05 0.01532328210414943 
-0.007447834415881043 -0.008913729658895902 -0.0387808798518389 -0.01427130983226226 0.008430195616010746 0.04697278492116547 
0.02693122248176738 -0.04113930353134002 -0.03030845581872664 0.002614212705795595 0.003926411775291973 0.01402063264489495 
-0.0006991573448340549 -0.04336323035680033 -0.02905295830043238 0.03732506595536143 0.01495040445657534 0.02143220025412773 
0.003991908534580355 -0.04349009808414021 -0.03387074298117473 0.02901948866942124 0.001618120897234386 0.04663643307124423 
-0.005280884204592291 -0.02585139192142855 -0.0215096582523745 0.009933023012251376 0.01417670551017151 0.04420007841592249 
0.02253753404674723 -0.01463150911768564 -0.0003599816568673663 -0.002867245665951317 -0.01650018394568697 0.006746034174149151 
0.00027066141032325 0.001683072462132961 -0.00944121076593616 0.001599046686583392 0.001996934691966796 -0.00801736037864155 
-0.002788786666499717 0.01836521975177819 -0.03149536393340366 -0.001627932653738083 0.03274604433623336 -0.01463133356278556 
-0.03030168008022607 0.04806441618739958 -0.0299090074057201 -0.03326147213851108 -0.01611977446741236 0.02600894935653752 
0.007436675771820698 -0.008377121767764126 -0.02463201535889237 0.001938125291796577 0.008155478478592989 -0.003716911599059776 
-0.01417140088966312 -0.01426304042311658 -0.03164963707304395 0.02794081515823128 0.01836456513652233 0.002535080773370056 
0.01249115286625415 -0.02859596243643545 -0.002933518236975642 0.0125512795811276 0.009195017176289412 -0.01899442049909197 
-0.01797668675095331 -0.03857904692950115 0.01762707034666414 -0.01319990369168656 -0.02350578520973102 0.02711034724189375 
-0.03646801930606563 -0.00159780595902368 0.01432518431097471 0.00666518936905144 -0.02214346334904218 0.01705859418676782 
0.0375042891392873 0.01434862508216405 -0.03328967438216318 0.002054207257456908 0.01200856283498066 -0.008136743017611832 
-0.005124100597292619 0.01449705200265 -0.03475889783020421 -0.009689371069742193 0.05896831089947673 -0.009711272338999559 
-0.03323339563111338 0.005305220094793613 -0.03151113610109417 -0.007120197982162632 0.04620704532060538 0.01234422640704194 
0.01462614583673685 -0.0183448650422517 -0.02384173891621926 0.01644819288169758 0.009608749316446534 -0.00159419943328819 
-0.002463675682285991 -0.0242358836198774 -0.03463627330738082 0.04729192968134287 -0.01426408726525983 0.02662414901764159 
-0.01712143243006393 -0.01896016819846674 -0.003179876149639882 0.01277554833145795 -0.01984316205651488 0.03913997236296301 
-0.02357780901042071 -0.02609273661631504 0.01625829076915504 0.004869485683601947 -0.0153236126748675 0.02631730827969675 
-0.00857138356276547 -0.01755912102082444 0.001728378722827015 0.009100664103120505 -0.01711397807185419 0.02116737697440673 
0.003520198450417552 0.0135393661635062 -0.007415721976026596 0.01511570247716138 -0.01077676298135345 -0.01411713466215863 
0.01604940800872785 0.008443563696698832 -0.04122664128879321 0.01979037367574721 -0.01872985296485901 0.01067090196063315 
0.006771330511872027 0.001512402896228166 -0.02234820706538959 0.005887328084597952 -0.01969143382042256 0.01497959183441971 
-0.007752273103205862 0.004410731172258075 -0.02978243480964152 0.0235761237584813 -0.01545331580381604 0.005686807215836 
-0.0302615204231051 -0.02347913695145012 -0.02035032906616726 0.02362262829001441 -0.01321138320029409 0.01575831546138583 
-0.02570956737753396 -0.006283707619494892 0.006724127357000917 -0.01132089682242628 -0.004018350472882523 0.01657888483594718 
-0.07118457921974453 -0.01325964449638801 0.05700501969929835 -0.03671300517374208 -0.02258884934136126 0.0387690785838633 
-0.03204023917630616 0.0221377295347629 0.01566704989252947 -0.0125711776577609 -0.02789472729998136 0.01610568267239336 
0.02938342718275941 0.02498824609036101 -0.01080783575752507 -0.00154782452325956 0.01336586884055679 -0.04611486738641046 
-0.008638827319891341 0.02545073192566688 -0.02080475951558343 -0.006751605789299 0.04030422781446445 -0.02660508119365287 
-0.04846031553723868 0.02099362766793688 -0.03162788346169338 0.01119880808515918 0.06549514394037398 -0.00148660752464912 
-0.02584007690650275 -0.005784890147763937 -0.02374300870527475 0.02938525947867645 0.01671327158589397 0.01606202618339341 
-0.001693661499229696 -0.02600033031508984 -0.01434470952405098 0.04145037611795152 -0.02117797022629702 0.01318921927371445 
-0.02853054029991948 -0.02263504808548996 0.0259863393236267 0.0001931531580532019 -0.02349300151168871 0.02019917825133527 
-0.04069533493507377 -0.03187197196904223 0.05656833870874619 -0.02807489390951022 -0.0258728125670238 0.02436455287039834 
-0.04603128326001249 0.01333402054575037 0.002402386800706032 -0.0008944903691060005 -0.009345968927650026 0.0158384423199594 
-0.02983366094168763 0.01706406194026124 -0.009016497033689562 0.007863887086376932 0.003688590129012594 0.004164334909958348 
-0.02510486767205482 0.01180290236778177 -0.01510894546086762 -0.01344443974775644 0.004645428979004333 0.02396995547930259 
-0.01651806903296303 0.03566909373135677 -0.002463897711985914 -0.01613905196674803 -0.01329971867695527 0.00487477554726409 
-0.01762853694828516 -0.002153990393675139 -0.005860888322437704 -0.003914349322871425 -0.009656915174308918 0.02426800901340934 
-0.02345386879048463 -0.005768548124457102 0.00725881233694341 0.0006092702710067611 -0.02925918296624697 0.01740897242304796 
-0.01814845578800982 -0.002702989796633816 0.01663357442560643 -0.01384476714075375 -0.007219173672613492 0.01763028408350591 
-0.04116518586330677 -0.002893336668134712 0.03628576268086821 -0.02870129558070506 -0.02381471360089985 0.04113751607690348 
-0.005662438378494239 -0.005178299316676219 0.01341078444490981 -0.0009074409420292532 -0.0186419365825434 0.01429486623732064 
-0.0005004999042018834 -0.001790339617141775 -0.01896856253941556 0.01644731115261566 0.01093060614299397 -0.02237488523370763 
-0.03218580967560605 0.03494171719781238 -0.02424416560988784 -0.00102968220574021 0.02689259411618161 -0.00813816707796153 
-0.0299640567359237 0.02831326902507604 -0.0126744721828765 -0.01024253842870751 0.02261833131878577 0.004243875338503226 
-0.01981586048575474 0.006727837498165907 0.006786823400078918 0.0004857982645982024 0.001956755916962805 0.002214132039761633 
-0.04316499400670869 0.00504752906575081 0.004075922129337939 0.0163213906116454 -0.0005782583851044517 0.01409682822933789 
-0.02312352850362883 -0.03121250092780495 0.0463446813855478 -0.03384930189126775 0.008606128431141651 0.0131023535198927 
-0.02322860134524457 -0.031122150426983 0.05133360104260109 -0.04443516712751731 -0.003994441218739831 0.009139971151924315 
-0.0304585264139146 -0.01070722716777951 0.03461746945239445 -0.008378585473914582 -0.02545327865514633 0.01287202079038324 
-0.01497619403379577 0.02200214627657861 -0.01032190257674344 -0.006259566075309264 0.02451872470203675 -0.01187773331615931 
0.007986885049268481 0.02787843370412074 -0.006513307752139432 -0.001784935344381993 -0.002963793839088548 -0.01690135354204941 
-0.007211111999279682 0.008692077954929357 0.003974724303657265 -0.002897697327181432 -0.005201064594527236 -0.002095066051210804 
-0.01172941375553549 -0.004144096606173925 0.01895933914379915 -0.005294629728146122 0.006066686900899091 -0.006538333451812056 
-0.04198396127324105 0.02038983843846555 -0.004474491464951181 0.01296118449944748 -0.005462830725086254 0.01127177181574459 
-0.01272189558377661 0.0001766160409484271 -0.02466351470759111 0.03353918954612224 -0.00733120216967893 0.003431674513723436 
-0.00483765924994087 0.02009486222966067 -0.01735398683128636 0.006862207368069631 -0.009756601960724786 -0.0002262221259704937 
-0.004998767809487472 0.01603865688759687 0.00117980553293878 -0.0006432747295040226 -0.002119906275282032 -0.00816478049804964 
-0.01732421631653227 0.02572356012220452 -0.002762966846787081 -0.01191030914879234 -0.01041293020082716 0.007930422757321491 
-0.02202453182418869 0.001950615384677492 0.01337877530976458 -0.008548418203137162 0.0005264730537714526 0.0008326419528052196 
-0.01226670939858227 0.01919924808953441 0.005258017672508189 -0.008979309377284471 -0.003649994755166989 -0.005648031257570419 
-0.02917103181331768 -0.008856271636940529 0.01698158935377927 -0.01366829342003183 -0.00933461408519151 0.01787037914475535 
0.001307047146989659 0.01572500944234946 0.01359675905144892 -0.01781961264075366 -0.0201316171522002 -0.003532611337835911 
0.01334464093859873 -0.005669615878177717 -0.006358888219483663 0.007926848161211884 -0.003874914139340059 -0.008009653852172611 
-0.002578489923876743 0.005732748557569212 -0.01993267036041272 0.01869650140862697 0.002351957314187444 -0.007933384052343707 
-0.0006204679903901988 0.01107028152542985 -0.01506584448184677 -0.007739834244347318 0.0171982663039511 -0.01888001689785341 
0.03068521758234814 0.004656561187041207 -0.01449015934946999 0.00261489340394586 -0.005963075362111883 -0.006877911204008511 
0.0336640238587924 0.01478244884641305 -0.002832391180651439 0.001183630561517996 -0.0383145800107168 -0.03919865815837088 
-0.01788607641144841 0.03464780996153635 -0.00487162712485929 0.001871059720554684 -0.02419631226740513 0.0002714888159271031 
-0.02111424773127388 -0.001755873511066423 0.0150703182530976 -0.002265107615258258 -0.002254585340079236 -0.001072039675654427 
-0.04260547303757687 -0.008515930814722241 -0.0131833410757189 0.03708198139102837 0.007509783075084079 0.01531300852527947 
-0.01191581350394571 -0.02137081773553893 -0.02537765748380643 0.04185853861754452 -0.002216010372850023 0.007289901312165522 
0.008008977655170599 0.002745049848840084 -0.02145097442548917 0.008106069620235233 -0.02619988303407693 0.01296187095339112 
0.01934860811149222 0.02697552033089372 -0.01610771460876235 -0.01471822577804214 -0.01413532732851849 -0.0153033757972016 
0.03631030690521416 0.03493768480729582 -0.02100336117129954 -0.0103299655471226 -0.0004614747511856213 -0.03491078870232219 
-0.0108080035683997 0.02980843492002108 -0.01119890007681516 -0.0008352994515251083 -0.001463902150431642 -0.02784172103074316 
-0.02384203453451416 0.01255464490984529 -0.009731355434555845 0.006099194861077012 -0.006121389984101853 0.00883451072215217 
-0.02844603817441458 -0.05709397554645751 0.02216225599406652 -0.008613317735229623 0.00936470895481779 0.02587639260616742 
-0.0130440074806896 -0.02874520659688311 -0.009421452547110704 0.02620182350796776 0.004402096713622559 0.03195216437599682 
0.02518988435281649 -0.02709154670910342 -0.0006593181935276245 0.01005996411403256 -0.008968158624866673 -0.006470052084051847 
0.006800185749511111 0.001987505068352819 -0.0005889585813479683 -0.01781039506420126 -0.01526474206234853 0.001586503850455026 
0.02265789553573003 0.01238740998824844 -0.02188303000349183 -0.007170444719820233 -0.0167478388913772 -0.01064319884504836 
-0.01313132026384031 0.01266152289628934 -0.03950979077167295 0.003263158880987961 0.05116097154244199 -0.00158273426000976 
-0.02860227095709522 0.04488798485113097 -0.01144555171984194 -0.02630501263257807 0.01413968788699877 -0.01286861617997898 
0.007292849761281878 -0.02422624158537458 0.01364007589086732 -0.006160618889217028 0.01345727168326353 -0.01492634647277808 
0.01438888591822396 -0.02067141710822293 -0.009939233858636098 -0.005870884334145578 -0.001394583350915168 -0.01404106962030932 
0.0418959065077295 -0.0129262827967116 -0.02964353388374304 0.03435956516199708 -0.03740049392887561 -0.01106511721175432 
0.01570465583591198 -0.003962826136051411 -0.0192294330299028 0.0066725152234412 0.0003436137209375903 -0.001341181138413749 
-0.03082455749462497 0.02280234367667504 -0.03105463227208348 0.004850182822051276 -0.006186444162151318 0.04120226600716338 
0.003823652347621047 -0.008800447530349788 -0.02823147857031434 -0.01219094847707073 0.0258031450404767 0.007473103046991315 
-0.002338647490164194 0.01332696154836737 -0.04382838170765363 0.008718833496168407 0.04313803825221323 -0.01718459294309117 
0.01014966073290944 0.0004915221754271113 0.01671758426191231 -0.009446026555524085 -0.003513677771982321 -0.02592543075492719 
0.02259751601946521 -0.04213232479204383 0.03406042816496639 -0.00200927080045146 -0.01504611279896507 -0.01360163419265519 
0.0185421484319417 -0.05404703010974565 0.01829395999540035 0.000191001111611689 -0.009779261891271674 -0.007015225333818946 
0.0414396933957194 -0.03209665122483425 -0.01923133800734656 0.01563050260583553 0.01401996707895803 -0.02868439510571728 
0.03346441072934395 -0.01833172635842927 -0.02288827377761947 0.01252150753319025 -0.001241299172996962 -0.008988755628579041 
-0.005051797546540349 0.007434166599278028 -0.03126780115046306 0.00670863162401769 -0.02472478254795632 0.02714848995959677 
-0.02590813024225804 0.02119279800808619 -0.03683387218369014 -0.005864280889549035 0.03155281561787468 0.01150433238536693 
0.03039564345610177 0.008960062905072213 -0.0358128886285409 -0.01913098522206603 0.0005290543540272742 0.01378546164743801 
-0.006880527564791909 -0.0327082658501412 -0.004048146117131905 -0.02495736667852115 -0.006973496412817795 0.05415106055378634 
-0.02037221750732936 -0.06186689517222881 0.01953577768836065 0.006019506142688603 -0.03450584627320898 0.03432762139941094 
0.03731222494938313 -0.06771156286335646 -0.01707108856415552 0.01556512746034526 -0.01030981853689356 -0.002150360895842763 
0.04794386549952279 0.01581597997792178 -0.0510307466149298 0.02163925685321846 -0.001525205857325028 -0.05439960070164427 
0.02531082869929124 -0.02178351163531842 -0.02556198107431157 0.03442316959701148 0.02161819689816801 -0.03604967769019737 
-0.02832074782906639 -0.006332608034602213 -0.03393373615127507 0.03039358860164198 0.03574919394846519 -0.01899943968011885 
-0.01035869167386329 -0.008480404377117817 -0.02537709290049304 -0.01534223712875941 0.09014138185779193 -0.03002027126720891 
-0.007138590141638196 -0.004959633986356899 -0.03393274383510943 -0.005221159237454536 0.08047162675423522 -0.04079812027864729 
0.0004675230743492689 -0.008460800032966152 -0.0005065714497897481 -0.009563422608344838 0.0226446073185876 -0.0199278596617276 
-0.00269097820761619 -0.03432390873948805 0.03985376539447623 -0.0168785921396032 -0.03105781847333936 0.01063823617187188 
-0.003023550176353353 -0.03599143927198105 0.01354221069258827 -0.0163149848630775 -0.01348307481722846 0.03319645104030546 
0.03423348883585593 0.01328717965761967 -0.03720428003563833 0.01724658490144537 -0.03762795875570939 0.005249588630650678 
0.007593887359874462 -0.01693753187298744 -0.03883526851517338 0.03363099000091765 -0.007048886467907601 0.01103387677823603 
-0.02518556318740809 0.01699539100577818 -0.03723505881942727 0.03460405246231461 -0.001897902095284417 0.0206585120888442 
-0.02658556289918457 0.01270573142501529 -0.02770655284084585 -0.009692199481726642 0.008558078792248769 0.03100330924808092 
0.009800311090105904 -0.001612534033834194 -0.02576600298707758 -0.001471393307679429 0.02213245126335884 -0.01239997672130818 
-0.03513986481315941 -0.01615543790981568 -0.02222406321730637 -0.01417365632192794 0.06581654850757573 0.01087597704103557 
0.001660716386781743 -0.01690261487864395 -0.0273680836230064 0.02300740660917036 0.01870643380614369 -0.01504802242935127 
0.03317377993777633 -0.02207061990000484 -0.02376311995900559 0.02806931179194346 0.00361838586373266 -0.04229811101465906 
0.07770071932780122 0.02703236008318419 -0.03628334010944159 -0.005649330973975049 -0.007824929989144042 -0.07314557710836195 
0.02320139773783945 -0.03360564670822162 -0.001201822746890302 -0.009244406299551998 0.01891093620706824 -0.01893803736194432 
-0.01088633267387117 -0.05920321531638488 0.004809378217321305 -0.001008499617597347 -0.0007809534445381495 0.01917672185948521 
-0.01130453200242416 -0.03536324001168658 0.004753603007769226 -0.02045559473671034 0.002228771417002318 0.02431328897307331 
0.05333663943907625 -0.005279972296119131 -0.04835875334429698 -0.01778419433787761 -0.007670016394704293 0.009542289786849983 
-0.0205440450508255 0.005425274879136455 -0.004002555612845584 -0.004175284541206952 0.0007416769085946554 0.009950362686087202 
-0.02477955108423744 -0.01777286567809197 -0.04352823704071231 0.03211309743509581 0.007822718834547155 0.03616566251200166 
-0.01485840461601264 -0.02321798765599983 -0.01108943832881825 -0.003733596885780335 -0.0005583384306176963 0.02448997334896744 
0.02789699503411751 -0.001574592873243207 -0.03627207141755273 0.003111702282082486 -0.01298223326547312 0.01072445054035122 
-0.005870286451512211 -0.01657700437585872 -0.00607413777815859 -0.009393499961212958 -0.0004290369702868198 0.03907319188530128 
-0.02419117683021473 -0.03416279939883117 0.01055222888841862 0.01965022802750199 -0.01973359684118971 0.03695562685797255 
0.006749096258823423 -0.009550937292707527 -0.01140654362765503 -0.00397251998050669 0.02913058982588306 -0.01187228063337421 
-0.01753426446365676 -0.006256420632515055 -0.01191172814088988 0.01337155271960832 0.016122698077323 -0.008916652613206323 
-0.02266563711734081 0.02170316604719973 -0.0340648938967279 -0.008188395744058453 0.05945152374617384 -0.03571618576999633 
-0.01795970987835744 0.05168999753012381 -0.03162085664507327 0.00610000188638212 0.02692898910686784 -0.0277595795367808 
0.004147217158092304 0.003128144366290383 -0.04045281429936009 0.03829588924440869 0.02398490490520571 -0.01345523523691942 
0.05331734327425131 -0.03089182311685693 -0.0369950486236876 0.04671474734304527 -0.02029725958099393 -0.02108233002588851 
0.04028209391244186 -0.02494841953485864 -0.0007534245317624904 -0.00826864446276227 -0.01814533705167974 -0.0213431970562767 
-0.03463042138666363 -0.02217395907196283 0.05288778614949488 -0.05097668734666062 -0.001731692147757277 0.01628350040116094 
-0.02782808577149065 0.0008889903621758026 0.006450639966945541 -0.01323151811148984 -0.006240666887039653 0.01624077263537515 
-0.01747679518857977 0.007301002086939675 -0.03704361490138348 -0.007528957431879414 0.01818668319700512 0.02593303572399922 
-0.02576209786859004 0.02641134423073156 -0.01851802490307153 -0.006754394305593275 -0.03142596625100107 0.0214501804837989 
-0.003513259197483034 0.04198413569094644 -0.04341169365351098 0.00691728253156619 -0.02223697446253011 0.01740246142967337 
0.04204100370662828 -0.008173294767890698 -0.01852432587881707 -0.006834753146064967 0.005745628142941563 -0.002543620868795885 
0.0197073079798167 -0.02454539699789988 -0.01911672382113743 0.01315871880043782 0.009928423024831341 -0.002239650710039337 
0.02311543679472804 -0.05177660719419316 0.01447161015227895 -0.01123011660386319 -0.007468183510725004 0.01595230216509516 
0.01111448107367283 -0.03863034247422202 0.05218986411070841 -0.03410805528998129 -0.0198964285470758 -0.01208477229972384 
0.002895554175412077 0.002487720894547656 -0.00350663121267572 -0.01060760159944053 0.01751814298346938 -0.01753273117335871 
0.01227224103469539 0.01041009717941519 -0.01601232699778428 0.001259043986475442 0.005043246676116081 -0.01554721393243189 
0.02028937816831231 0.01208140515011415 -0.04133527837437894 -0.01597897525915051 0.02269356861124019 -0.00460500966391076 
-0.03976357628443013 0.01877495425612253 -0.03376619974923015 -1.132775325488605e-05 0.003932494238363093 0.03232150069660991 
-0.008172986428950634 -0.01339282025640053 -0.01747493231954255 0.02018628542684283 0.004992565407491305 0.005059117784347482 
-0.02200488101379154 -0.01258296657824953 -0.01258850849572924 0.05057685906234454 -0.01125304698076103 -0.006779310150170329 
0.008278450472196275 -0.009202075992465218 -0.003823265551643518 0.008129958711234337 -0.008760086061470239 -0.009308537373111096 
-0.01620116126248809 -0.008709249090395348 0.01188282581421646 0.00577787197584391 -0.01724363775603849 -0.0009649533148299812 
0.01782701548103079 0.02004638820925701 -0.005979352684555953 -0.002882732821303206 -0.01572112797522304 -0.01842772477345829 
0.03817004672571386 0.03430885012033831 -0.01219463104868105 -0.004319512313582951 0.005175731699675101 -0.04534384898564105 
0.004867735164523782 0.008332334171034234 -0.009230762455968294 -0.02338649490970957 0.006935545393613556 -0.007760524837134844 
-0.03008640670293787 -0.008786663900402975 -0.009387639253009684 0.002988827037310599 0.01949820288230295 0.02524303447006947 
0.01136168562398631 -0.009944978840915353 -0.01671464857567678 0.01766950184149583 0.01363113093431888 -0.01351874244520741 
0.01737254975439681 -0.03928472216358072 -0.0133071566351157 0.02393046847918114 0.001779751717021465 0.01049460634334086 
-0.006279581218847191 -0.05645051560813954 0.0225951531521042 -0.01294735549542958 0.005337537095829146 0.01147038076629582 
-0.01499259136825083 -0.008885155189568483 0.02658924942158132 -0.01624080873113596 -0.01234434927050756 -0.01992929566786392 
0.000828694129759458 0.02155116830670266 0.006851645476116333 -0.01172340481622071 -0.01575072075889928 -0.01950233672258417 
0.004638117563292648 0.01252310047406323 -0.006072394356931983 -0.0004370426863500616 -0.009184252429922286 -0.01790336804588715 
-0.01978726034406198 0.01678394679367345 -0.006582049666380789 -0.02519394038135111 -0.007932243934038548 0.02217125563448813 
-0.02242824357973777 0.0162069639220096 -0.02702332921866423 0.00615224860083261 -0.02318951280290189 0.04531232393530258 
-0.01841230946170322 -0.001421720823948562 -0.02237959181305917 0.03047852649953238 -0.0003429594352873455 0.007996733955618252 
-0.02299591870584734 0.0184275448074748 -0.00378314648353712 0.01676092615562639 -0.001929217499658556 -0.01553018136198029 
-0.009559451295500789 0.003186785597844665 0.01540062367946737 -0.006904219730775409 0.000233219942714439 -0.001321806677091488 
-0.01231705343340331 0.02415033312031898 -0.0009955375468909708 -0.002676852673015872 -0.001411885048573826 -0.00573142882664367 
-0.009678423113809002 0.008372605262059766 -0.0005444907149815023 0.004488772389937993 0.01233543671872764 -0.005873756027499255 
-0.04091864127053749 0.03019012812985607 -0.0295064477029748 0.002114528886306509 0.02051157380609637 -0.004860262573695705 
-0.01041511573435827 0.02975210549915978 -0.02109782550670232 -0.00843714445654137 0.01143999563275172 -0.005005126977235528 
-0.002454778863352597 0.02322350972343462 -0.007459752817561657 -0.005867491263603546 -0.0002823405501895618 -0.00684781317776978 
-0.00702996455130865 0.002537189596338935 -0.0115766993589522 0.02071449206528601 -0.001006331205695935 0.0007082843702597692 
-0.007555790313605752 0.007148280810452542 -0.0004835538470215286 -0.007970190093690989 -0.005230394106721316 0.0008785308207917118 
-0.02816755271986397 -0.02042190502764918 0.005443157185768504 -0.008048657076616816 9.830716953241304e-05 0.0233382820435896 
-0.01431827471565474 0.00555168454903369 0.008293195603476616 -0.01912298986204453 0.004156737426055447 -0.005694210074461968 
-0.02808048423391879 0.006058197973234325 0.005134295381342728 -0.003147946879551211 -0.002302843914138647 0.01077914743440133 
-0.02244850460256327 0.02637032751356634 -0.02149215423017752 -0.01025155866614599 0.01119082686801294 0.00365190465279825 
0.02059528365177398 0.02670297392685565 -0.01224369377351274 -0.01502187649415755 -0.03005635218013663 -0.02381725807242488 
0.01218353607703006 0.0259896504001434 -0.0005705189566580037 -0.002578817121448664 -0.01386844225162504 -0.01819109636148777 
-0.007889161806603569 -0.005704243372950164 -0.004943541557632908 0.01807045728600263 0.002148651609585356 -0.0102739490833825 
-0.01889841513651913 0.00298279528840496 0.002657578890433493 0.01263158725603354 0.001211109521741895 -0.004415755145769839 
-0.004149105569232473 0.002667925058164531 -0.009196772791083491 0.01197916244478143 -0.007685970112137991 -0.004361373239838994 
0.01680158173898337 0.00767478114822906 -0.02494827567215067 0.01300663200909935 -0.01592580602904383 -0.004058828297442211 
0.02295729424278008 -0.0008524962589105261 -0.002979751825334515 -0.008893201093150775 -0.01801510269017316 0.006413674945749982 
0.005061733128557353 0.026332599323417 -0.01303624250863149 -0.02956429032502047 -0.01282060401114493 0.0250104298594387 
-0.02594511651677436 0.01291339527481106 -0.007316585735689949 0.0008252722734065411 -0.01086555412289217 0.01392610106300985 
-0.006783223231439667 0.01463630039803834 -0.009370790490679281 -0.005388144592813909 0.002925297787446668 0.002867226084825628 
-0.01258227229339816 -0.000566789776083834 -0.01269732990714768 0.02400506907256434 0.00378317397129574 -0.01032561354691018 
-0.01202106174954045 0.01806542079096127 -0.00952303110296966 -0.007093766313927593 0.03417221565574401 -0.01859660335613948 
-0.0154539769060982 0.0162652943907537 0.002064677447618205 -0.001449254190693737 -0.002714308678620037 -0.0001445696492211823 
0.003821441313065726 0.01336283545193852 -0.007166699993188449 0.002115281303920435 -0.001077750398604998 -0.002080444705312468 
-0.0007279449839657971 0.05071294273099105 -0.01668733947044444 -0.007328281825386417 -0.006223264400030419 -0.01969650507978274 
0.04270557621471295 -0.01260745362288146 -0.02638295712209102 0.004368870564664565 -0.01311312418261474 0.002669748401118443 
0.04238892940749471 0.003397589778404546 -0.02328575718350539 -0.008981131505240596 -0.04280299366360197 -0.007908156313044054 
0.0162958391700842 0.02535279964204153 -0.02895745533757493 0.02572682921890357 -0.003604828424866185 -0.03869433415459764 
-0.01839085739431573 -0.00928037072547231 -0.003779022595046726 0.02406447163142436 0.002512055898719649 -0.01078816969075487 
-0.04867393533876069 -0.006720846306842422 -0.009804720570167151 0.03990788341892625 0.02832360601243802 -0.005165056312148677 
-0.03148267521691182 0.01347787940880456 -0.01443420534333357 0.01070684022762958 -0.01293963155482742 0.007651531180736143 
0.01182994291014876 0.01722225736589251 -0.02522518657370824 -0.009404466318238621 -0.03479846231052305 0.0209007926604836 
0.03492006532295389 0.0206147790666117 -0.01524815479038895 -0.03267914866429499 -0.01881388050450633 0.00415226192018332 
0.008301761684907146 0.03877069350885559 -0.02957221411481194 -0.02166562399412954 -0.00482563083955238 -0.01516165659579959 
-0.01930800230852054 0.03534706340164229 -0.01110405855641986 -0.009653294550800585 -0.02729950634753844 0.001509351754027725 
-0.02984031181368089 0.05902031804930869 -0.03164974818956601 0.005150115422525524 -0.0135770366591933 0.006736132493984829 
-0.03604580029621553 -0.008430487871831415 -0.01178369509569728 0.03700980296553216 -0.005908895423105369 0.004098511949498968 
-0.02489919578268077 -0.007581874611890824 -0.008901940554663718 0.03858387321548335 -0.007545105171048905 -0.001900045529501183 
0.002441711186478679 0.00508303308469232 0.002718894609453331 -0.006162753932409895 -0.0119400047145286 -0.002175806287779652 
0.04527953515212726 0.00566573380972805 -0.01383339933895437 -0.005155952684312379 -0.02147577607127054 -0.002778998443895296 
0.03411813499871495 -0.01483347581731921 -0.018694496181622 -0.003106950250981596 -0.04119516568828684 0.01972578215202856 
-0.00622626850615699 -0.0001031103384840456 -0.03783596799505502 -0.008840308273328693 0.0384605734441131 0.005093188489248551 
-0.04226926628936419 0.03712279738230458 -0.03736439154262899 -0.02202504529868147 0.003808521651703623 0.03722537422296356 
-0.02088977453096943 0.01973703253916943 -0.003631147609459599 0.004822018780768869 -0.01119760218920756 0.00800293714321359 
-0.02428717987864712 -0.008382453474326198 -0.0212783145779526 0.02571357461734677 -0.002527953391206306 0.004809841859152316 
-0.02267903858873384 0.00795528929177962 -0.03474182903843185 0.03001413386130912 0.02707387335541122 -0.02835841365469276 
0.008472003561576458 -0.009553329363623977 -0.02736129795019406 0.03151621984205034 -0.007840610657325345 -0.01993059237275903 
-0.004313791924158998 -0.002397478587824006 -0.03167928133617 0.02651092928605994 -0.006441254110619629 -0.006107770704883963 
0.02617914194943196 -0.001566345429232647 -0.01293161812421789 -0.0008329330814092069 -0.0001240347415807447 -0.02507675577241979 
0.01125888728793057 -0.03101144521774804 -0.02296529375394027 0.001913308534670546 -0.008196409647778739 0.0180771484071944 
-0.01166423882544078 -0.02243677058797822 0.01048611346545703 -0.008386572079505425 -0.008829302218204611 0.009619162607119832 
0.02302625769828267 0.0009892624672968007 -0.00255369196443367 -0.02276471125832583 -0.01571332391999273 -0.005168211550904716 
0.008212922395244336 0.0001939795205574135 0.003249135733169592 -0.02491689745951019 -0.01363077739119802 -0.006272812287020112 
-0.03813429027607804 0.03342412122243716 -0.01652115023732489 -0.001545027783665151 -0.00693394345657145 0.001750043294475119 
-0.04015600236192697 0.005600926300312772 -0.006741031308554532 0.01034019803411252 -0.005604631592070395 0.0237944718270957 
-0.01693293254261666 0.02573261133312791 -0.03313848952809324 0.03418463179737469 -0.006657448431416855 0.005098740612960795 
0.03990578306581843 0.01610328799081915 -0.04471776491204251 -0.007904304876315164 0.0005190445919943766 -0.01152485830427365 
0.03744628960152967 -0.01232799893348712 -0.0452142799824365 -0.008442473607454275 0.03112940111550013 0.010269513202883 
-0.007336308371224155 -0.003474633243985458 -0.03502742297520712 -0.007733007968409125 0.01072646635442503 0.03586466779614265 
-0.04742217159387914 -0.01130886759696853 0.01546322479443974 -0.01573757707028817 0.01038433564897525 0.03829942896845345 
-0.01570536827261376 -0.03231528606929811 -0.00114427664780663 -0.002173605079508144 -0.01057889750768854 0.0252009630798411 
0.007327384318310141 0.01501635059653045 -0.05512565579321533 0.03575669243498913 -0.03393858200589794 -0.009964244155265027 
-0.02629117638494296 0.004859915020631814 -0.03839601659078258 0.06121429388619691 -0.02448880439180273 -0.01028887258781383 
-0.04277536523289633 0.02127897934046744 -0.03315206703351029 0.03811161088680411 -0.02254222203137488 -0.01436171162703111 
0.005090148705866985 -0.002671580935209954 -0.00812441763869895 0.001954619421940753 0.001639585901455045 -0.01893159818191258 
0.05233576510491325 -0.01360871222672552 -0.03840902578040047 0.008619035124493366 0.008746971983277708 -0.03005156516272099 
-0.02455812237853796 -0.008871490302404911 0.005489968869678926 -0.01448447329892256 0.01978872530722518 -0.004440422655790641 
-0.05527968580537958 -0.02302195698772078 0.03736744627686806 -0.0379923944841352 0.03675048879930916 0.003223250548127724 
-0.03507638688580034 -0.01510820070222709 0.007834267710715211 -0.02709251038363883 0.025556294560302 -0.004120336227906472 
-0.002183862073771462 -0.001435010032382632 -0.03890115119102097 0.00730424401136854 0.02092721449849174 -0.01024595504580793 
-0.01843144502303481 0.04193276686657883 -0.02640623738658003 -0.003611359080813124 -0.01748569382421026 -0.007674625026302516 
-0.05425579116857684 0.08885086492850747 -0.01455168188729521 0.007124096358378991 -0.04050664589344666 -0.01093390675626978 
0.01547055236934065 0.02591832607048412 -0.04193109247584169 0.008403869338410079 -0.01142444887936957 0.0154399983696327 
0.02440859404736935 0.00127529103592834 -0.02263326853367214 0.002585955528583197 0.01152024971846038 -0.03052574106275502 
-0.01040193212531728 -0.01212569496304552 -0.0170607088717593 -0.001283053843327768 0.006398539865689655 0.005165135595536664 
-0.03973994418117032 0.02294102421566741 -0.008558602105297006 0.01788294757897974 -0.01722949109166028 -0.001739491210830688 
-0.02568186845447971 -0.01568192166513284 -0.04967828882912666 0.06471334208708629 -0.01354834945764073 0.002719680037462576 
0.03591245297722531 -0.01868487266819697 -0.0608032343588189 0.04140579832737014 -0.01760525288403886 -0.01143171682131341 
-0.02585903031647344 -0.007318051820563978 -0.02339267480460998 0.02286950074216507 -0.009549021339341043 0.02699951416353094 
-0.05061370432095984 -0.008211600455393448 0.03324011222655718 -0.04335155441583936 -0.02127314768035237 0.03885573378370104 
-0.009820985000820501 -0.009898963832734226 0.007752285165007302 -0.008786647667313545 -0.02938698977722017 0.02186950376283046 
0.05247206709367132 -0.01320906543217643 -0.05249384984222043 -0.007388190030973535 -0.009810632953862536 0.01406304071034203 
-0.04144515153098499 0.02592819025360702 -0.02608041980509577 0.01019646280440399 0.02024367855271812 0.02265018014340206 
-0.05009365713870485 0.06192157178679551 -0.01276320775130345 0.000547500424921353 -0.005977083651252565 -0.007491339996940164 
-0.03349562879721237 0.0455412529674484 -0.01608428270717367 -0.003612472005286177 -0.01584156386064091 -0.0140075214289853 
0.005279342817628112 0.006669602453288843 -0.03860574153674669 0.0104370211052412 0.00482893782888811 -0.01279964617049615 
-0.03169596879893695 0.01728741783786047 0.009281064488474352 -0.02892686676857645 -0.001520586704658924 -0.008501747968790722 
-0.05831375408975498 0.01762826999451541 0.03064234510501842 -0.04305915696625721 0.03280330655484522 -0.01668494228470573 
-0.0255215024641691 0.01383284080523224 -0.02502683128246648 -0.00129417888594092 0.04866112342831147 -0.01742744440384197 
0.02437665718062624 -0.0100274274836861 -0.02178115364023174 -0.002526063181935852 0.002875993714338207 -0.003626993729602318 
0.03124802856019051 -0.009042927884824548 -0.01617058817563983 -0.012711148905424 0.001915093269137403 -0.01850779785401394 
-0.00506109594091254 0.004480022230791979 -0.03368660541028083 0.02990542823815005 -0.01797471955066492 0.005629603196268537 
-0.02433944260669406 -0.001418138949187901 -0.03091033985558972 0.04195244475210322 -0.006943288113179956 0.00508571663589136 
-0.02855504769376725 -0.002790310173586877 -0.03868943814318323 0.04123841202009795 -0.02579321645955773 0.005699277304748245 
-0.02150595633918573 -0.006034659657614826 -0.02275401143616518 0.01757098275287629 -0.005371675788990019 0.01416485581262296 
-0.03718776759721208 0.01351943005947418 0.01154553074984176 -0.01789591857733395 -0.00337772498221705 0.01148225436278314 
-0.04665910697303622 0.0283186911080777 -0.01861059989696487 -0.01357664253213593 -0.01054218297653101 0.03327281045856624 
0.0194126742896321 0.03686432339295641 -0.05509517396360455 -0.02937730954562302 0.03011975913538792 -0.01171328817569734 
-0.001449962306471031 0.02636732754421266 -0.0175534007970334 -0.01008334276691337 -0.004893822291162936 -0.01351475065625097 
0.002688600863469737 0.0428691984141211 -0.04532876483258281 0.02203484672487753 -0.02793808383247534 0.004745108041026746 
-0.0175107182771407 0.01462625873104041 -0.001673428251362376 -0.01105807890473642 0.0007355567151386867 -0.0005908623850560695 
0.0164742262655523 -0.0008570614823546308 -0.02237204537354169 -0.001067192660886375 0.02525157650838645 -0.02336232382268247 
-0.02421658371476648 0.005895644528925677 -0.004148779559535486 0.00483300824719329 0.02272338962068175 -0.01510085840131742 
-0.0203977699097485 -0.01043579405923006 0.02783799377576545 -0.04713947679977037 0.009863368836110189 0.003024475759752595 
0.0004622751266347722 -0.01556639000431351 0.005410369716269982 -0.01916259907050042 0.02506086567326507 -0.007627105596413776 
0.01041485908657625 -0.007586088747659502 -0.009626020094582884 0.004355742618219145 0.009759705700686161 -0.0235775470141167 
0.02927723288230511 0.03660266872842755 -0.01860464350937101 -0.02433770213424475 -0.03214587385955713 -0.02063487486041973 
-0.003776341782865934 0.04287931200456706 -0.02562890000931384 -0.01501856848108685 -0.02977955129202925 0.006510877654112021 
-0.008423153892874466 0.005015576108097755 -0.003018046931464631 -0.002335538601926864 -0.01396221853398212 -0.004659102617961166 
-0.04863271087715505 -0.01487781132184797 -0.009346621378752118 0.04215475895681432 0.01237269949353161 0.0006093481000653993 
0.008610921646688627 -0.01270815247285128 0.005726904117903676 0.01086229727159304 -0.007922046661453108 -0.01462803252056017 
-0.01158306783723511 0.02360725900283467 -0.03728934279884826 0.0366633465114095 0.0157950956977365 -0.013040130124383 
-0.0109483854031299 0.02446539918132981 -0.008876788452162996 -0.004718948368562511 -0.02186916267104322 0.008454847964636355 
0.01334232314252026 -0.0001455438932627122 -0.01710517805396781 -0.01045314195344611 0.00909067269636169 0.003627837939419982 
0.01330322103029154 -0.003095725717139793 -0.01334066549085868 -0.006264771259211263 -0.01385995608712907 0.0232921088256902 
0.02982563844713938 0.01815059227691364 0.002765653342506284 -0.01710077112736439 -0.02524393443374676 -0.009715297136440466 
-0.03445100637827033 0.01020515217446737 0.01930485512960221 -0.02208224636165644 -0.01505468218441784 0.0217098125959247 
4.059809624767406e-05 -0.003746708185895425 -0.01339738794420245 0.01579958848639463 -0.004794732083821088 -0.00630070914736339 
-0.01787731599675422 -0.02843458459045264 -0.02945012489931896 0.04423198588210103 -0.009331875445854208 0.01451006547284194 
-0.01841028812236446 0.02805083680532347 -0.02498412815228131 0.004363086792819971 -0.009676263701800044 0.01151448337832124 
-0.01884773151875087 0.0365785627013783 0.0001332234127699313 -0.02185941130621648 -0.02821472771692003 -0.00476013675622684 
-0.02375239992111892 0.05611875864995408 -0.003278219107797907 -0.02820202491988549 0.0004176082121959288 -0.001427387476340141 
0.03638467103454724 0.01294618313298651 -0.01202053440077314 -0.03673961587150754 -0.02430749501460689 0.01601360326696514 
0.009239147823969177 0.007118521202533435 -0.02929130417505511 0.009183538088292583 -0.01540738330848378 0.01183857600224427 
-0.01640310249311193 0.0121255987364551 -0.008146874539294411 0.01090630876057553 -0.005021552064180815 -0.00408984289621129 
-0.02333661712801841 -0.01495371576325002 0.01355482148034393 0.00985796752261015 0.02066664147780022 -0.01583903398399011 
0.0008085981267287065 -0.007668911543672774 -0.007935303107137803 0.02458757256675148 -5.577125080782381e-05 -0.008625987542030575 
0.0003883018381318248 0.02432903172490339 -0.01798143623184769 0.01505736903137358 -0.006298164676397063 -0.01066832393685734 
0.02170259369338956 0.0003140179156005397 -0.005854017342473029 -0.003403987199201135 -0.007871603243114117 -0.004570007915673687 
-0.008089030791439054 0.04447125996812065 -0.03377924060820237 -0.01065060037307639 -0.01711764165419442 0.001586313000658556 
-0.03466548421951467 0.03639056363754448 -0.01707150442546315 -0.002151240731423437 -0.006184759641730589 0.01353661834001416 
0.003774375983981872 0.004025649103057211 -0.0160724203636361 0.009711897458474839 0.004511977975621339 -0.001682552576386484 
-0.003422158423595942 0.008403246150821825 -0.001988300697864401 0.0003822563680079935 -0.004049062894308326 -0.002582249365197476 
-0.004485728669683513 -0.02028803339070696 -0.009324366975559039 0.01841936665056242 0.02337951147769005 -0.01760931898527832 
-0.01354287809244531 -0.0102394758707356 -0.03212030702500018 0.04633442296911649 -0.01370719198042951 0.004622200003556183 
0.0008640380343680141 -0.009267893092835043 -0.0122497827899715 0.004594884920686325 0.000575401061429845 0.01156899339216297 
-0.03047726872849283 0.0117612998018584 -0.009637080745187225 -0.01124858879403038 -0.009131569780904812 0.02432747985146352 
0.01391391113401532 0.02894000881832562 -0.02174077924103649 -0.01830300695894143 -0.005373274055606465 -0.01038638321450549 
-0.001843421420803994 0.05632905470349368 -0.0208030635675355 -0.02665656408432211 -0.03293761484295688 -0.008047002920750985 
-0.001774210643933649 -0.001943546404359854 0.008446402665640325 -0.01102150392963943 -0.003200868926139841 0.006966489986783043 
-0.007240904646495055 0.002979628418806844 0.01868646566705195 -0.005669791061218782 -0.002244106027700766 -0.01023546062553075 
-0.05269695680057707 -0.01462312961271336 0.0057659462844412 0.014923166696305 0.03175726006586753 0.02056350317406463 
-0.02231103978140119 -0.001024088027059814 -0.007106831512671966 0.0102811614544465 -0.01277411241551944 0.009549394999661997 
-0.02413219650666489 0.0197131718612515 -0.01030241479732095 -0.01245872904430775 0.001328820333370482 0.005120877805507159 
0.06508844678633857 -0.005515857166692583 -0.004181612897878766 -0.02451982431027755 -0.01913380939118884 -0.01071120342862615 
0.003077357621641717 0.02109001106792852 -0.008208103291938728 -0.02333743946996084 -0.01785196912720891 0.02016977204673932 
-0.01258599223700249 0.01185515826110677 -0.002063381850227618 -0.004290615686955549 -0.006089187314707771 0.005010408401900825 
-0.01009615446998864 0.0180864715056044 -0.006438011513909728 -0.01087954958647735 -0.006250872752367269 0.01495092639414119 
-0.02115244006767037 0.01064817439751508 -0.008227444941948762 0.02338254246911373 -0.01206203308976157 -0.009126780565970884 
-0.008120699263341753 0.006536086808995838 -0.01568386343026998 0.01984390918884892 -0.009918329068741523 -0.005488135907684087 
0.03318050358402837 -0.01407385168648216 -0.0160290849103338 -0.003135634462907494 -0.004167198232941812 -0.001275174636985588 
0.003559413144042269 0.001423058456441126 -0.0014470981866638 0.0001124097429324563 -0.00399325903759815 0.008438552490291995 
0.007036243834880172 0.02193693318142939 -0.01248773174946711 -0.003745311411208193 -0.00980946452921151 0.01062786721743363 
0.02389204763560479 -0.01041675399583623 -0.0003730529568022405 -0.01229465204398174 -0.02601672068890337 0.01811236450350915 
0.03866931563728745 0.01057209261859956 -0.02211866043092673 -0.0173825843177765 -0.03743150922622183 0.002122427578300987 
0.00285879245763637 0.02881822388097063 -0.01172291748921319 -0.0149541896810828 -0.01739279932792894 0.005724070842480635 
-0.01164747272111909 -0.008670592348644268 -0.003235396090853911 0.01445561364398057 -0.01015638390697079 0.006718391013004836 
-0.04375354427486002 -0.02033774579671138 0.01262979153041086 0.01264837060610035 -0.01344843418775345 0.01550404602971826 
-0.0235324589153219 -0.01019611903397801 -0.01925745988534655 0.03178667212036097 -0.0207916519831889 0.005198370909817128 
0.006271386784020561 0.02125422652647654 -0.01321789247648228 -0.01538310923885009 -0.02284803987651724 -0.00451359840604309 
0.07020167625825922 0.008725003257315506 -0.01431119552219275 -0.0394575818369223 -0.01176290559562754 -0.01067439854301847 
0.03010010954932484 0.02751003094868077 -0.008080218261097064 -0.02898991993732445 -0.01561401084482922 -0.01929670484206499 
-0.003554352890856636 0.05358851665675064 -0.01353082668731767 -0.01773198314346154 -0.02923670000915122 -0.005588005854909982 
0.01396564951245927 0.03023674358690139 -0.01685307277562357 -0.02164904272667681 -0.02142645638253993 0.01482105216417399 
-0.001102348367275202 -0.003836716903397949 -0.03393674152946753 0.04563352796808695 -0.02160800267917803 -0.004425121943961106 
0.03062291889811363 -0.0001517096580618639 -0.01596751555928027 0.01507482338017064 -0.0274168236833205 -0.03793713390290307 
0.01479604184570067 0.003149354768991796 0.002629200135827244 -0.007535683813527095 -0.02230152851296206 -0.01700513693745868 
0.0008294229877802691 0.01620325462990004 -0.04084034428930745 0.03777221189776048 -0.02624518398118619 0.0110551797412484 
0.009788607310632906 0.02357425513415576 -0.01304679330163931 -0.02126443049717422 -0.01569378467626877 0.007217234208670091 
-0.0261922076759969 0.01501840588286888 -0.003542533825259449 -0.03598890216877478 0.04787956062441746 0.01029393655875528 
0.01707497826610055 0.03822480064662812 -0.04425827274935877 -0.05324262680902014 -0.02834384429925863 0.02832052366964202 
0.005373136084663259 0.03254483320867257 -0.03146239489920589 0.01180737233540621 -0.0016315269809133 -0.01820031655848612 
-0.01601835796799524 -0.002654720964628217 -0.02429690180031174 0.03566490276881164 -0.01535716433865911 -0.002124351182896909 
-0.007548621962156247 -0.03036317951919839 -0.01048460036105742 0.0260289901580855 -0.002951237852617188 -0.009072167761801853 
-0.02057395958172599 -0.04405515895570109 -0.00480935528684411 0.02044928839132755 -0.01302805953338467 0.01449829356332914 
0.01820522686420301 -0.02122121717055992 -0.002309168816153833 -0.003169224118792285 -0.0250788486988076 -0.01233725979775941 
0.03135585861662168 -0.0148726530522533 0.001520311363757723 -0.01616270931638385 -0.00644933526961118 -0.01399408209721421 
0.03257098107218632 -0.04877699336620413 -0.016349056177818 -0.03873570755365831 0.04774055897124943 -0.0258081536957436 
0.001260552408940263 0.02127732098492504 -0.01496740440516551 -0.02199147211567389 0.005379310662272038 -0.02014021462220263 
0.008149877480567405 0.05630324974731337 -0.03544836578394896 -0.008636478321021906 -0.02551438420766397 -0.01158061248413549 
-0.01138294497821524 -0.005805446135099654 -0.04007070296994257 0.0423495721907462 -0.007847710913146991 0.0005813056476541273 
0.009757017596311595 0.002543691607238937 -0.03198068932991865 0.01897206878524522 -0.01093585598889087 -0.01211254993628036 
0.01005752230468615 -0.004179011952109643 -0.003335214818616996 -0.004597433578437228 -0.01298908242635482 -0.003088817446557125 
-0.03833877325762309 0.004502365673320546 0.003615710180516951 0.03431477137465611 -0.007337546171338523 0.004123776215950367 
-0.02076637780940466 0.02524243988456962 -0.008520889840687404 -0.01899241282102305 -0.01597099149168795 0.01907109622454458 
0.01325673638485424 -0.004583191569228116 -0.01966923744644708 -0.02115056696096071 0.01866892172667385 0.01003538625205527 
-0.02622980395683584 0.007495641673643162 -0.04768135577105911 -0.02687631590856182 0.03755019527901166 0.0359469483457241 
-0.04611715373013073 0.04770722932028797 -0.01310447899478094 -0.009769032368278769 0.01296772131581148 -0.003534808299114745 
-0.02145884783722758 0.01259874989314847 -0.02269987636310644 0.02649203069260478 -0.01868785156410941 0.009787127482201882 
-0.02160771959140298 -0.01081879502306194 -0.04582803153542831 0.05677641046556061 -0.0008647521175787642 -0.001189385965508692 
-0.02211668997820234 -0.01081031338406635 -0.027927822089318 0.04417957597395614 0.0002306072730039746 -0.008038485043834835 
-0.003681108724998982 -0.03075813793484581 0.01586078350298056 0.01420435826678751 -0.01100443469225484 -0.01730901247339508 
0.004570599665926989 -0.02540179012599908 0.00746361395631487 0.004239604915455495 -0.002393437172374247 -0.007309626041085308 
0.03135819270772949 -0.03765360688193132 -0.03184045141181616 -0.009823567540375654 0.04082327929301442 -0.001988740533306079 
-0.005747945894154578 0.001891377747433683 -0.004374005101680905 -0.01188842945378565 0.01623692580624948 -0.01311498120026059 
-0.02428909520968166 0.08768265153055795 -0.0144214603514546 -0.03600610899673438 -0.003107727230750929 -0.02649091085244322 
-0.05854241519262451 0.06425884621747655 -0.02407356142912409 0.02505967014778476 -0.01202519935086734 -0.01981007745530993 
-0.01603261988546015 0.0154629848683494 -0.02095164544956689 0.02462280081584002 -0.024368092937836 -0.01892740465554746 
-0.008805717421190859 -0.003372573486456574 -0.005964011978508744 0.02055827567018349 -0.01306169367966563 -0.01474162348692729 
0.02413354092792864 -0.0227475138443257 0.009440996505036998 -0.005608659848758821 -0.04348086104917408 -0.006815451798056488 
0.03568216946501163 -0.009879902654206314 -0.03057709743261566 0.01522404099816916 0.004981672885581962 -0.01355058073846517 
0.03112272543193579 -0.01318024269190548 -0.01886583542140368 -0.007564449250087039 0.01477501127348797 -0.01108379177509547 
0.0002094335935007267 -0.02717257368552069 -0.02732958570704005 0.002603938509363794 0.04106349612261511 0.003023488929315541 
-0.03648553609061118 -0.006552669604163217 -0.001509176435302769 0.03012063139603667 0.005689946156219807 0.0002306975905651554 
-0.04569395761547442 0.01084715814737321 -0.0200285290088139 0.03637222546531971 -0.00341356450479484 -0.001018683470620769 
-0.0258672492311014 0.01410225823018049 -0.05298061016017958 0.04816766796379406 -0.003941593400377722 -0.0008808105180779782 
-0.04265534909878702 0.02484573428771118 -0.01346762605070994 0.02092947258712941 -0.007444761406776662 -0.007095177265513462 
-0.02772178593777121 0.03432511012918443 -0.006994346811803645 -0.001199791962492001 0.01179295269190805 -0.01588014071689916 
-0.01493272380453444 0.00346328334190934 -0.01668192874293067 -0.01190126263454011 0.01197328681428406 0.005102276919280059 
0.0273911431129092 -0.01784247126651569 -0.05180800234736625 -0.01941864924326491 0.01559370539706293 0.01321691826820635 
0.01311245345074476 -0.0141523836444526 -0.008727599660946687 0.0006901522622897064 -0.01172449160213885 0.007257240371176006 
0.01211875290614976 -0.02934186589056433 0.02215556512133796 -0.0119271934958333 -0.02915469676818693 0.002267627302900788 
-0.01914697406014721 0.01351760697702556 -0.0165983089193084 -0.0006507617902654874 -0.01276256190200734 -0.003744343649889175 
0.006633127933761115 0.04137552968386512 -0.0490150439809769 0.02893769261083709 -0.02276010503937284 -0.02714954833125599 
-0.03738695622692841 0.05150397752456724 -0.03436037426705639 0.03196182874801291 -0.0188980292585665 -0.0181758144891333 
-0.0348010803501198 0.0428187765267059 0.008071221116204435 -0.03501021555390724 -0.002246767453426148 -0.02663064431531409 
0.01648824364026311 -0.007815638100083072 -0.01027573320732187 -0.01642904418773633 0.03798504932523865 -0.02701113176584545 
0.02718555665011631 -0.02284855625321205 -0.015238511089385 -0.01412320620040631 0.03376197524350352 -0.019492599691917 
0.07713797735026924 -0.05214407194934747 -0.008849291813041121 -0.02935928759652923 0.003912241546896373 -0.02606416032177438 
-0.01140234140940484 -0.004649909622345411 0.003926937245574319 0.005968353817321654 -0.003391069973392368 -0.02071491437477789 
-0.02719553980009732 -0.03200606409824179 -0.006337932194814411 0.02047632170164231 0.00584303742459275 0.001503998603019918 
-0.02541926597567509 -0.02301245861609575 -0.01764860336199575 0.02573138288072332 0.01793464281155405 0.004145537949591868 
-0.007834127766557061 0.003545047953860233 -0.02246434504755871 0.02767311034048263 0.003429348119134731 -0.003955815553301102 
0.02539465116207754 0.00998351572677483 -0.02604327201562066 0.01171375352583831 0.008736240726249154 -0.01225673131324818 
-0.01272720610704831 0.04664926045564247 -0.02521449685386671 -0.02522806103746173 -0.01318612123316053 0.01754793467343612 
-0.007314172061397219 0.02752039326463125 -0.04550367977312242 -0.03587705306988261 0.03911240545334928 0.008866819791803295 
-0.003157968638336356 0.01175241306675252 -0.004586237369074299 -0.01132277657414985 -0.006905429726057333 -0.003814000986232508 
-0.02719598223327522 0.02547717360645069 -0.001694380191571363 0.02576986607007065 -0.01778098113251906 -0.00243943769550474 
0.02728769141983371 0.006724422556993049 0.009612666779715583 -0.01845056444298317 -0.01507953798531843 -0.03244375953823803 
0.02026163118472027 0.005100057994519016 -0.02457791626230825 0.007413205261262185 -0.02625133468852758 -0.0179944188171724 
-0.0235540745794389 0.02159699233518833 -0.05468756828637497 0.05642291458264265 -0.01794278527822817 0.001585254202032772 
-0.004089736758540925 0.0357592329256818 -0.02101727102142452 -0.01018210288127584 -0.01645148332412455 -0.00672626347712243 
-0.02634641068104433 0.01332761335165054 -0.0006816675233726063 -0.0194492479217833 0.005876096264139124 -0.003390418272016495 
0.00828288564868317 0.009669947079530119 -0.007493619752504226 -0.02599417247177992 0.01868491382412977 -0.01921184323129505 
0.08774496623245284 -0.008932453687536689 0.009988004494360114 -0.06709092209536265 -0.03290588505492718 -0.02207306850505433 
-0.01478445404883507 0.02176062746865473 -0.01918571785382919 0.001382801822183985 -0.01086783414876112 -0.005727233450356311 
-0.00249285213562985 -0.01495937797535375 -0.02272904403710007 0.03140567620061253 -0.02260435972600252 -0.003682094574924923 
-0.01252996585223736 -0.02776115168094803 0.001391387318331104 0.01462819117181163 -0.01191318522417651 -0.002582052089295751 
-0.005294067324281631 -0.01268420033781596 -0.01384088983553776 0.0231158615160637 -0.006984536449377862 0.003969726508203303 
0.003456798169464508 0.03505990461546193 -0.01958570479882587 -0.0136556748339199 -0.007172399408132863 0.0008125806372880839 
-0.02107821490169546 0.02028197086685328 -0.01040393063294445 -0.01058732264317332 -0.007637249971738725 0.02260437439153371 
0.01234134272724455 0.007713374603089489 -0.007569707104880538 -0.03479353168973969 0.003071553124822091 0.01174611195386282 
-0.0004524313526206491 0.01450203779399656 0.005494329020373772 -0.02359872418355585 -0.01689392116752715 0.0004174462741345294 
-0.02271977168597161 0.01332998745884566 -0.007374404575209533 0.000625997073782766 -0.00839941465819204 0.01325270602523895 
-0.009897591162942998 -0.006575518777728676 0.01391842814942245 -0.01211234916581487 -0.02858578223743235 0.004031585176512965 
0.0156565983230279 0.01414318021729289 -0.03142125894456766 0.02088939107016122 -0.03720836520348541 -0.02760335425988315 
0.0186947992495806 -0.003673003377071164 -0.04154548605162574 0.04547559626631856 -0.03055389632020992 -0.004852956529045629 
0.01006514397692428 0.01428121617373922 -0.01556350444411488 0.001064899894232402 -0.02824685790235643 0.006105513861201796 
-0.00445722353398981 0.0447992584701199 -0.006813469631121693 -0.01994291553322317 -0.01647875752393707 -0.006879486778385974 
0.009413888070989985 0.0261057989385947 -0.001180431964948975 -0.02303523922944177 -0.009874436200503394 -0.004831683836915859 
0.04893682382667006 -0.01302483671990588 -0.002404602426159677 -0.05107843047615811 -0.04144258476674849 0.03631114637940186 
0.009233330554650679 -0.003368911939879049 -0.00581210752769135 -0.006289699852125641 -0.003257137792878397 0.004269575506797959 
-0.01951559320046885 -0.006031061261683994 0.007640072665370497 0.004314934392608575 -0.01341439687877045 0.0006865869547428862 
-0.04265827483754736 -0.01881363124309906 -0.000115762694695576 0.0123943609505071 0.04446231982911806 -0.01118947503932781 
0.02423833290043901 -0.01103195487545002 -0.003894838772145563 0.004814246947939778 -0.004926065268971551 -0.015237644520477 
0.02559559627904903 0.01014710615087246 -0.008194350753012603 -0.01014289402217147 -0.007989222079345553 -0.008226549470298002 
0.02559532574409718 0.004912376609175418 -0.01398126402791351 -0.01309291165130954 -0.003777515118613669 -0.01076532266593718 
-0.00710555530884191 0.03679692768323455 -0.03590691247212365 -0.01112414127313741 -0.003161998725716482 -0.003721576209176894 
-0.01846324647224139 0.01205102627898098 -0.01640679773407658 -0.00170404716104714 0.005634190866413599 0.01873249377628752 
-0.0184063631730979 -0.008219717840534249 0.005447016618365395 -0.01148265046714255 0.009297407457889357 0.02252518184155507 
0.01559269278570439 0.00509534042591406 0.001540404563034515 -0.02023998282956531 -0.009500950550227821 -0.007129293162024765 
0.009332871108082511 -0.004316158885574678 -0.00159670114796257 0.02552955177853339 -0.0096485976788829 -0.04142753384600006 
-0.01202505842595521 0.004307362451464234 -0.02820865760135819 0.04599073640185856 -0.01550043569505516 -0.003570749573806612 
-0.0135653557310415 0.01637967313934598 -0.01152585094839897 -0.0002342040479923937 -0.01442578229120014 0.01727563163153257 
-0.05287935156612073 0.03711823119242946 -0.001304119750314882 -0.01302965762919503 -0.0195061237925441 0.02889420625291633 
0.007532880153115626 -0.01376812224980906 -0.00784582236667394 -0.004479389324682623 0.007433910289844221 0.002152579906521488 
0.006769804932136637 0.03500460834489396 -0.01747849892328038 -0.009889241189641278 -0.02646884024581302 -0.01864666858407928 
-0.01134318011552426 0.007133111995768666 -0.002563033275869374 -0.008842860029041093 -0.003515545317287158 0.01643906688588322 
0.0221124571103448 -0.006301856638838319 0.007379256104343731 -0.003679405067638993 -0.005516277522320019 -0.008960433001975391 
-0.003859107304505276 -0.009356840589789341 -0.01358961895209673 -0.002867991889899154 0.009930507565263131 0.01572618307983866 
-0.01291292537024969 0.01454184389305919 0.0007677958344283325 -0.006912502913172427 -0.004117225439951383 0.002122247637426558 
-0.01632841802847462 0.004359455750746927 -0.00504886641867312 0.01069603891928127 -0.007943852918718686 0.00516710287681001 
-0.01835185838277165 0.006926315820013264 0.008283134291812327 -0.005703485447612499 -0.003705907283327263 0.00814920239203447 
0.03750625004887628 0.007850092790031484 0.01344694680344159 -0.03482391310885128 -0.03482696356728795 0.009320808493177145 
0.01656131742916177 0.004853784537911891 0.005735687794216305 -0.0226470283380803 -0.01054119978786098 0.003948266747922867 
0.003037166395993459 0.00840930341678201 0.001655639763050638 -0.01064963928012012 -0.003276981753060105 0.003514177292643193 
-0.009581956449564378 0.02001751882339634 0.002846903219246797 -0.009223689462768797 -0.007329923590078416 -0.01010773042457256 
-0.02239847971454996 0.04306688076566776 0.01105448628287827 -0.006644071022608621 -0.03339510400088941 -0.02653908644603253 
0.01635339368939462 -0.006347167435615326 0.00174294159576644 0.004558086790917224 -0.01224755241513319 -0.01100332838655874 
0.00325803192434785 0.006233174092743647 -0.00499485930132983 0.01862072248243337 -0.01013798153675185 -0.00678901528823358 
0.007313956533420911 0.001124225426505715 0.002874594488661496 -0.006139977645741319 -0.006019004121425171 -0.0005338269583698537 
0.007188613086078082 -0.01340670756842267 -0.0001493859769239745 -0.01174077301925645 0.0009321710129163208 0.007514606948041272 
0.0381889740265408 0.02424652479172512 -0.01360258014865938 -0.02225216391880267 -0.05396491282970003 -0.009970800824395139 
0.04304384534802895 0.03721117622511907 -0.005493163365551596 -0.03612774788293785 -0.03706692973280788 -0.004529783756848677 
0.03637732796258423 -0.01140974209912715 0.01139718457612907 -0.01576842886844773 -0.01214689298629167 -0.01299533236729426 
0.0218795190411054 -0.02491496329159533 0.005924147728450927 -0.01628420669955864 0.01214305252189774 -0.01699258778275303 
0.01398214112291784 -0.007739108884812806 0.002063544257589674 -0.008889598067622729 -0.01644815594653947 -0.01580003357836709 
-0.005740016260393764 -0.0277341387029848 0.008884823667948334 0.02355464952330899 -0.03355305418565115 -0.00385685107876189 
-0.001176893339243201 -0.01047632327939095 0.02241503280172371 -0.03357244422031226 -0.03225027426327838 0.003300243524520839 
0.008156449322347974 0.05036700245901007 -0.001498070701542087 -0.03784924384742881 -0.04082114786643353 -0.00677019377516807 
-0.0102086055996376 0.02645965278809854 -0.004103293562050444 -0.008214418704876868 -0.02279549052793351 0.008756221936090706 
0.05509066848033542 0.008052425039510244 -0.0007833064026795449 -0.03093421331366356 -0.01835265022516957 -0.01386707263812541 
0.0385053973788384 -0.0201435330591966 0.004130685056427213 0.007038892705190223 -0.01750308726647655 -0.01904257562665217 
0.003004619655162063 -0.04115079901803882 -0.001765421403731731 0.02849483845715417 -0.02961132193887975 -0.006671922184713539 
0.001852414624302485 -0.007648391296272101 0.01436472948890276 -0.002421778997036439 -0.02497865545765837 -0.005990020570951762 
0.01894696909261617 0.0112013414743563 0.008734927628184388 0.008423773414016946 -0.04238898517465188 -0.01537770737594182 
-0.01947067596275607 0.01141517371314766 -0.006871143774027352 -0.02429169537088024 -0.02496641443442301 0.0297360024010998 
-0.03997936043819612 0.01020080833274944 -0.03538299290431112 -0.004176240597628083 0.03524941447369313 0.03211160578958908 
0.04806907130209946 0.03247412584858021 -0.03472595596080062 -0.02524374181556562 -0.03384292160678723 -0.006333320368097134 
0.01809011259400908 0.02868766938826727 -0.01726702243309684 -0.009757503216540425 -0.01463591992850769 0.0009058382422886195 
0.02344956933402943 -0.01965172866833949 -0.01282552935490739 0.02855424803746567 -0.01060624424038566 -0.01122057339549549 
0.01695157080251032 -0.008878456572892591 -0.004560175420912839 0.01326572641367148 -0.01062958479715268 -0.01235397584882038 
0.007599456830698234 -0.02071495726032451 -0.003417071915982858 0.01184857844091471 -0.006881646939267775 -0.002097730249103522 
-0.005807046978365813 -0.02335024210782494 0.01315426681789324 0.004662276598392838 -0.02592623283733795 0.008128277249031698 
-0.01819951156761912 -0.02100187101034781 -0.00340607489396559 -0.005254666903192286 0.01179959236797369 0.01237544139294567 
-0.01856063913924369 -0.02105752225928576 -0.01341272905393292 -0.02816801469904291 0.007997751118630634 0.0231057118014659 
-0.008375531950744685 0.02046110739033411 -0.006477739625926423 -0.02002823289375237 -0.0005080809197674414 -0.01142250389190452 
0.03090488451428971 0.03716830455585948 -0.01211133188726721 -0.02505015530957085 -0.01791254496121821 -0.01934438727909069 
0.03099623046636346 -0.02229094371893086 -0.01910795389809231 0.03087965721158431 -0.01485100414466087 -0.01971049093543066 
0.006455999947761024 -0.03918561651361622 -0.03231135767517366 0.05893097272910491 -0.01381313377056979 -0.0253254472540079 
0.01633606671262438 -0.04315240736261248 -0.003374707020001364 0.04396691248184076 -0.01924024323620089 -0.008692587823754686 
0.007775988048317919 -0.008868419626172802 0.05584195963205924 -0.04257136426928114 -0.03221958727448896 -0.01258654784938275 
-0.003256230816800518 -0.002285410650918568 -0.00082340748926636 -0.02625057841821827 -0.03128096481375505 0.04607266079698678 
-0.01606300879740838 0.006877791705174606 -0.002933680112106457 -0.03411703561873896 0.01793178519428334 0.02168511667717822 
-0.03170547135333773 0.02587201251003432 -0.02587977975780444 -0.03358610721857583 0.01387892439372562 0.02559281837567466 
0.01278616522461955 0.03012211911030738 -0.029888217936638 -0.00420921637017876 -0.009279896517500767 -0.005921012333824608 
-0.007746568802590765 0.02616268208408736 -0.03967314821141289 0.02297946658191141 0.002498804282115378 -0.007668306384754669 
0.02946965743127252 0.009200730274081465 -0.01720306769155808 0.004355293357728473 -0.01449600704445148 -0.01124484649873854 
-0.004719698994367097 -0.01227169404482282 -0.004485216877640957 0.02287710832290933 -0.01208118510141535 0.009141684843607804 
0.01072225716647535 -0.01672899676768793 0.02819175691080216 -0.01817634317514276 0.006731654562991633 -0.01314779715752775 
-0.03406970962402535 -0.003095030153136565 -0.00509662916116551 -0.01110679405362702 0.05071477288248745 -0.006104551567576799 
-0.0203437827533909 -0.01131185724798273 -0.01578546649675715 -0.02579997687654075 0.05831397306371015 0.006790973545852353 
0.0391153084593578 0.00521087960435561 -0.005597831097208327 -0.0183071203865292 -0.009475848922846626 -0.005046579235944749 
0.0506380083409112 0.008061201755371847 -0.0160973354111146 -0.0220469806065816 -0.01871704810025182 -0.0009203833291622534 
0.0453286037092695 -0.03585363514524358 -0.04452415406377721 0.04328750474249653 -0.001478675829446974 -0.03008282297681509 
0.03135065719685062 -0.02134845491229428 -0.03829553449379209 0.06190738922243395 -0.0174837676977167 -0.0502808084199173 
0.01511491867157083 -0.04443118449522104 -0.04028405462182728 0.07148374509322888 -0.006041842063380782 -0.02499210315549952 
0.0321397428693242 -0.04181069701419111 0.02007760993746389 -0.01850795578960741 -0.01097111101406283 -0.01814972076968792 
0.02560283059634492 -0.01995297264849242 -0.00779084987494347 -0.01364602688044296 0.001829568474378179 -0.005368704774873408 
-0.004805249527058848 -0.005057085964914436 -0.01739372525916848 -0.02260599391908192 0.0368177260180983 0.002669791800056858 
-0.04056589991470688 -0.004846327241891488 -0.01075599551418597 -0.02903119610655974 0.05993793818416032 0.000997560336770393 
0.04044456739722131 -0.006090251227802257 0.006481457033695592 -0.01159815373468981 -0.007718290042563625 -0.02300522978530908 
0.01911867732972006 -0.003764904426724891 -0.01845907806036312 0.02860336597143179 -0.007091763616445013 -0.01174968503397272 
0.02838098676323772 0.02888813567387187 -0.03186244454215304 0.004005028784142202 -0.008708484222361928 -0.019238575731003 
-0.00605441709438135 0.01182564101982851 -0.03787139519709845 0.03419456037399569 -0.001469850557107849 -0.001173877847430011 
0.02932336290289529 0.01091325805857898 -0.01108809939056461 -0.00584767304087191 -0.0187687467366954 0.001200031766664785 
-0.009437251820177548 0.0005889074437295982 -0.01040491248207853 -0.01580796908063697 -0.008640340903166857 0.01212655142816092 
-0.04264643459115194 0.02216753809720739 -0.03570018866727202 -0.04393721568907606 0.03280526501677437 0.04523287566135716 
0.04118116421496938 -0.03484386223993927 -0.003367792207647361 -0.02191614258309307 0.01471000239384903 -0.003055203119653638 
0.02807794130160903 -0.0190500508565394 -0.01203034229788337 0.01641228422333984 0.004909304290087159 -0.01884862806872147 
0.03125046230733226 -0.04916531389157888 -0.02590557352516193 0.05256407116070981 -0.0141718275244092 -0.02488023203613208 
0.05877117869199504 -0.03847130675387895 -0.03834029683808977 0.04935637001570323 -0.01669311014749341 -0.05795255725306857 
0.01435856291602865 -0.01956723395908942 -0.05662193664274092 0.07151577777744512 -0.006709098679349225 -0.01797404217386962 
-0.002210575354741732 0.002353634557794902 0.005711303170717034 -0.02007678520689972 -0.01047058812777742 -0.00266601334545078 
0.0349278904453811 -0.03838219136418768 0.006818292285181671 -0.026062583455972 0.01655152317922479 -0.008358972414257619 
0.02264322345837129 0.008615631012720568 -0.01014750642760774 -0.02002751169415998 0.01131066741902885 -0.01180007679078438 
-0.02701473071040607 -0.00193134006936699 -0.01208479026927387 -0.02345801801335413 0.03292822504703864 0.005329565806485683 
-0.01457261691238766 -0.003244204262483761 0.01378452812356763 0.0134109573984136 -0.01951371098554829 0.00569352391661933 
0.006876788208689364 -0.01415537077242795 -0.008831903899197311 0.0221009864617158 -0.02101533491407009 0.00480364403261183 
0.02250783561850098 -0.008541216715591569 -0.02513667088048926 0.04544946227113944 -0.004162341282945921 -0.02714144560018219 
0.02815489159216048 -0.002026251174599719 -0.02665694198827004 0.0235467995614062 -0.005440024840443007 -0.02124371376961182 
0.009624869158345704 0.03057688854714686 -0.02731849784314914 -0.009794514771198528 -0.005172549827430031 -0.005215782238058884 
0.01105454720981112 0.0437078088593877 -0.03039173985395009 -0.01390977460795973 -0.009355299754509796 -0.005722209648505292 
-0.01626429946898357 0.01424370490455054 -0.04139778540133545 -0.01622845115361925 0.03864138343196864 0.01587151480048936 
0.006532221401934783 -0.01357701031379311 -0.003221617139721973 -0.02163045552407161 -0.03947052082348323 0.0351936332771485 
0.02507490304418071 -0.006935413411153283 0.03966485666426139 -0.0221408071913274 -0.03254623763339377 -0.03039096347795181 
0.01376385448729569 -0.02838794731591841 0.005200402499155514 0.008732689315936589 -0.01339126316247935 -0.01261245252461317 
0.02301622276623512 -0.04302055212467519 -0.01771792972207663 0.0498430892399189 -0.01592211009183817 -0.03576406218341441 
0.01923234403347409 -0.03525079867336674 -0.02566156875224808 0.04749035866634747 -0.008467375470443147 -0.008031547489763136 
0.004635014684616589 0.02852630861453524 -0.01623844727426452 -0.01976077224983499 -0.002144662696886552 0.005164146992821217 
0.00791062879307357 0.005745237924698808 -0.000768547039712991 -0.01374888966213667 -0.003561723171770853 -0.009566505056271697 
-0.006722571518387289 0.01370887511607025 -0.004920238583770784 -0.01028272492435023 -0.004528159836361808 0.008509620761588593 
0.02168468548185565 0.004810597683982698 -0.002716237494140632 -0.03312952858691295 -0.04766277948820844 0.01655427060548967 
0.01734715131932977 -0.01754439067858781 -1.375506133855217e-06 0.004577893417618492 -0.02450158535159359 0.004497212803987093 
-0.01715449778852741 0.001238440809308909 0.00404358406648377 -0.009792450884644357 -0.0123844960814765 -0.01100307950535812 
0.01521863959923593 -0.02214283461682873 -0.008706588311009126 -0.008393022834474788 0.03870562319752924 -0.01982420915031037 
0.06355251806483007 -0.03442902469963561 -0.01037087607334888 0.0009315011795365474 -0.001437022811923298 -0.006716536738362458 
0.005821944082253243 0.04187483450080395 0.00449154140397127 -0.04122758248946355 -0.02699491067481966 0.01002692773372042 
0.02783522914294367 0.03034066395100886 -0.005192470801801912 -0.02168305578680938 -0.02705726818759856 -0.005023080734791545 
0.04571345092910797 0.01826999693592475 -0.002550233039287484 -0.03561876029229745 -0.00182755933515647 -0.021822310564007 
-0.003516941186467772 0.01364583004268557 0.01403193934697494 -0.02099505658797882 -0.03589213157356905 0.002317476395874239 
0.01208240259919723 0.007826191942482266 0.007711312900131657 0.0136369214504107 -0.04947998188443203 -0.006125733531742118 
0.03018464606118826 -0.02517460764524721 0.02297970665415076 -0.01507911668378088 -0.02401417275356787 -0.02019807313321109 
0.01616264733816669 -0.04414292025869219 -0.008351366419622561 0.02865463431002359 -0.01444019141183359 -0.01792373830458504 
0.03958736753736177 -0.04216108391516353 0.00448283752324607 0.01831035722909376 -0.01482496072795516 -0.0214507528231095 
0.01629853427907383 0.03268775738927031 -0.01462672735801582 -0.02255889214404318 -0.0123585173997782 -0.01432269694144825 
0.006969429869710437 0.04033726830649532 -0.005110684537965667 -0.01932372075993525 -0.01673652395293841 -0.01699041951497891 
0.02176108433627037 0.03427434128823846 -0.01019028223313634 -0.02265483730287711 -0.01967221852012068 -0.0007182264021021926 
0.01461552837734699 -0.006767027171635668 0.01816744138042351 -0.03869886971017134 -0.02386437062789273 0.01475920942644005 
-0.004348576637077511 -0.02511792385960531 -0.004318623638264119 0.009556614171862567 0.0001064354344871471 -0.001002897047576007 
-0.01262631009167002 -0.002487201447587766 -0.01186120052994364 0.00616628251188503 0.001319350830591813 0.001054700674780744 
0.006520282208833497 -0.01711857483040955 -0.0120495135573744 -0.005378486791613412 0.01549864672546368 -0.002202931841901103 
0.01311015502341372 -0.01954541569183335 0.01037172430121818 -0.008697038041332143 -0.002604675346804482 -0.002693774131283144 
-0.01014114451693774 -0.01136206041055774 0.005821506513749935 -0.01040239936748159 -0.009106392253555206 0.01998779092414628 
0.004227057080260219 0.005471252957245028 -0.01105641558393772 0.0002707925612112143 -0.008742944368098018 -0.004443745011886946 
0.02302934303850502 0.02076423757007334 -0.01545590539127938 -0.005396601365473755 -0.01352016080304192 -0.01758548844480358 
-0.004902588593982668 0.00285377449219835 0.0005648309306056042 -0.01196206382484587 0.01212763251703197 0.001928588312182474 
0.009687097840415826 0.001165746813923907 0.00967546495646204 -0.004920594689343696 -0.02298528044563913 -0.003422859080688026 
-0.002830691896700262 -0.005730104501672547 0.01890374929375374 -0.005179657038913571 -0.01422668622326073 -0.006648208965120285 
-0.02974629956918102 0.01615327384065176 0.01669532361481311 -0.001253078678340163 -0.0137591865311838 -0.02590182607446486 
0.004190632072049603 -0.002786122501629267 0.005636678199709308 -0.002083651055761485 -0.006935849269190458 -0.01695676871786072 
0.01020582509419091 0.007034890630606129 0.003095764394774951 -0.008397130459703282 -0.01428699327043906 -0.006381376650771423 
0.01463045833334082 0.01516055911503923 0.0035524325855255 -0.02961336694747205 -0.01003520282998061 -0.009539049510809935 
0.008531101784032968 0.01686584149097115 0.005508144569071029 -0.009495623978484058 -0.004452663379247082 -0.00879672676700359 
-0.006521121059868277 -0.0006574424003117703 -0.007941289852742743 -0.004669549724438128 -0.01670955866519088 0.004138020214790522 
0.006002676384026383 -0.0005205629608519544 0.003809188209769433 -9.984979847132472e-05 -0.009627532711323793 0.005537055959666596 
-0.002255223906098437 0.01004842234411026 0.009564132925346226 0.0007184762832025056 -0.01134199912387451 -0.009569799460113881 
-0.001082088228249208 0.00107226103587168 0.008364307159771068 -0.01800001105325898 0.01126616966120677 -0.01917015178096942 
-0.001755635683529756 -0.02084227250400029 0.01569506134866823 -0.007328974082745714 -0.00664572330749757 0.002501529279433473 
0.01865892242229583 -0.02635554914410283 -0.0005233027600586898 0.02084020110658636 -0.01223561752154805 -0.009693228647221826 
0.0078704936034123 -0.02838035794277569 0.01053005786153747 0.0005075637562852342 -0.003787792266595996 0.01058626116946883 
-0.03299283587539904 -0.0001136597421874592 0.007641599717154714 -0.009961712612933916 0.002441990457992203 0.01268242715853108 
0.002853212579823263 -0.002301788069591806 0.002275378231786701 -0.01630983269154548 -0.007033171440701092 0.008348828805705796 
-0.01650524585199855 0.01751106526880432 0.00127299598545108 -0.01852313090667079 -0.00890609474840596 0.01433539075338191 
-0.00073015105005326 -0.003668179555211011 0.009284502905830329 -0.009889880386397883 -0.007818778280304179 0.002287354994414383 
-0.05159082736092876 0.01682364756064917 0.009664178320475156 -0.001609929099500705 -0.01922592946782556 0.01477528258467949 
-0.03944017851969243 -0.0104703283730715 0.004557450133550427 0.002938879074672453 -0.0202574783748833 0.03802603543607248 
-0.01615657710443587 -0.005245454033544482 0.01272397483078427 0.01140861686254263 -0.03213114283708954 0.01764357508930402 
0.01118013639663889 -0.004785559438266804 0.00417184817918253 -0.007692977238742858 -0.01303032058180057 0.003933036445831756 
0.05507087763325426 -0.03308309881041453 -0.01242782424095247 0.001025407913449253 -0.004437126545801786 -0.01115663146444841 
0.05000591474501825 0.002155307380444399 -0.002771283639589494 -0.02872333756526574 -0.04799954526140851 0.0008542539535334317 
0.03146060812242864 0.01670258091066082 -0.00257372002503774 -0.025647828619279 -0.0273836115613377 -0.00496014243216478 
0.01997246192075078 0.003179705555643779 -0.000719807692429503 -0.005147374818488231 -0.01613816857333718 -0.001952754366484454 
-0.001505139809310089 -0.0393251560920175 0.003890661152468338 0.007255129220774337 0.02994897431480449 -0.01527548126058881 
0.02756648480830442 -0.02594599059277483 0.004375018674506985 0.01278205098950978 -0.03030499990841285 0.001435093894622426 
